转 -0.367848 0.628366 -0.723427 -1.025953 -0.169696 0.002337 -0.828589 -0.444749 0.361162 -0.508842 0.127761 -0.631490 -0.294832 0.309722 -0.726894 0.107598 0.594277 0.411643 0.367269 0.076599 -0.480824 -0.575222 0.278172 -0.084985 -0.206497 0.017512 -0.242267 0.197186 -0.433281 0.265625 0.189527 0.244916 -0.601085 -0.296250 0.069631 -0.288455 -0.171459 0.096695 -0.256130 -0.043663 -0.225552 -0.169844 0.506659 0.036204 0.160418 0.114743 0.620783 -0.449909 0.178814 0.076136 0.125238 0.191626 0.773898 0.456012 0.379470 0.236983 -0.640625 0.091066 0.505915 0.911030 -0.087065 0.016885 0.381380 0.657815 1.080001 -0.308152 -0.213932 0.568440 -0.440594 0.233302 0.364505 -0.223487 -0.113047 -0.862831 0.311028 -0.269989 -0.142759 0.518563 -0.197665 0.092041 -0.621903 -0.196740 0.004867 -0.458064 0.057613 0.465974 0.369881 -0.579219 -0.472848 0.314231 0.074219 0.978773 0.514547 -0.046477 -0.123424 -0.510964 -0.002651 -0.065921 0.464838 0.255735
账户 0.017639 -0.036313 -0.247089 -0.303581 0.130320 0.042740 0.119628 -0.075452 0.103439 -0.061104 0.330610 -0.304763 0.074921 0.130115 -0.240399 0.061642 -0.020804 0.176090 0.094945 -0.107684 -0.089951 -0.148588 0.278163 -0.149483 0.150186 0.085193 -0.070548 -0.119212 -0.272120 0.441054 0.124327 0.145595 0.019147 -0.210299 -0.338792 -0.034591 -0.110298 -0.047262 -0.031002 0.004626 -0.053287 0.148851 0.062738 0.018473 0.183597 0.142279 -0.085479 0.126950 -0.052882 -0.083897 -0.185627 0.153255 0.006872 -0.078337 -0.062180 0.195204 0.183010 0.368978 0.067085 0.332632 0.020106 0.015098 0.173364 0.025956 0.206332 0.189064 0.006368 0.082464 0.013188 0.297903 0.241081 0.066285 -0.137903 -0.186054 0.052670 0.122039 -0.053813 -0.059599 0.017367 -0.080269 -0.028950 -0.279022 0.125955 0.017899 0.237644 0.130315 -0.039400 -0.111627 0.084251 0.166331 0.120947 -0.017427 -0.118127 0.234361 0.021992 0.174280 0.163629 -0.203094 0.379550 0.145413
忘记 -0.315720 -0.243614 -0.493619 -0.045507 0.537831 -0.233066 0.212935 -0.194641 -0.307230 0.002123 0.772197 -0.307193 -0.050021 0.142833 -0.116651 -0.036549 -0.189519 0.016210 0.026142 -0.300958 -0.167238 -0.157994 0.459996 -0.242840 0.468461 0.148702 -0.012941 -0.203899 -0.467204 0.828031 -0.183708 -0.381133 0.177232 -0.213890 -0.730180 -0.040341 0.020246 0.093246 0.180616 -0.099003 0.411429 0.318858 -0.341856 0.233904 0.203860 0.153726 -0.359001 0.149674 -0.357262 0.166757 -0.300934 0.333110 -0.157245 -0.432408 -0.467550 0.222265 0.604659 0.012678 0.091339 0.435952 0.093703 -0.017153 0.617613 -0.160827 0.491487 0.467259 0.055707 -0.027015 0.250256 0.738786 0.588208 0.028592 -0.118746 0.155478 -0.155505 -0.037362 -0.168652 -0.476510 0.059402 -0.125040 0.209520 -0.536196 0.363033 0.186401 0.171968 0.631461 -0.081350 -0.020394 0.479897 0.108722 0.808502 -0.431719 -0.189659 0.330340 0.079416 0.455754 -0.071362 -0.455552 0.250382 0.240074
资金 0.060095 0.156172 -0.275465 -0.609039 -0.132128 0.199868 -0.107507 -0.109573 0.158607 -0.235218 0.205127 -0.383961 0.033498 0.110893 -0.504635 0.191948 0.158078 0.202326 0.162321 -0.076790 -0.330654 -0.412472 0.253926 -0.100098 -0.071080 0.132954 -0.182279 -0.010402 -0.126610 0.446518 0.243544 0.293033 -0.076413 -0.282741 -0.264613 -0.019782 -0.136879 0.043294 -0.214171 0.011800 -0.283483 0.037856 0.350246 -0.004463 0.129222 -0.077073 0.313664 0.078442 -0.017033 -0.060214 -0.125956 0.119780 0.135456 0.265515 0.109842 0.171964 -0.082696 0.498887 0.142983 0.476467 0.048756 0.091850 0.158876 0.045709 0.411055 0.018228 -0.017320 0.077948 -0.301828 0.294298 0.261308 -0.059381 -0.090305 -0.420027 0.242468 0.083725 -0.133872 0.098619 0.012915 0.030985 -0.188891 -0.206684 -0.030875 -0.093021 0.237096 0.116643 0.083464 -0.282242 -0.115033 0.235153 -0.122557 0.335519 -0.071547 0.237043 -0.094658 -0.009003 0.338422 -0.081626 0.346361 0.216153
股票 -0.054532 0.213074 -0.192895 -0.279511 0.037274 -0.110058 -0.466870 -0.277555 0.135729 0.025941 0.099781 -0.548915 0.009890 -0.073297 -0.225008 -0.004647 0.101055 -0.082332 -0.202555 0.201813 -0.183213 -0.164351 0.175328 -0.179400 -0.086005 -0.122086 0.000158 0.299733 -0.481139 0.018039 0.350192 0.109984 -0.175449 0.012101 0.180222 -0.078661 -0.221459 -0.118168 -0.280126 -0.095482 0.149970 0.062182 0.142877 0.139979 0.239463 0.067693 0.124386 -0.464112 0.084294 -0.077320 -0.054812 0.108080 0.276882 0.039449 0.220550 0.242428 -0.307276 0.164803 0.353450 0.431943 -0.082664 0.162535 0.275464 0.332078 0.232209 -0.248737 -0.293004 0.321227 0.055413 0.011542 0.270253 -0.169733 -0.123388 -0.031772 -0.082802 -0.283690 -0.044676 0.213585 -0.073896 -0.104641 -0.565765 0.057543 0.106353 0.041617 -0.113797 0.330149 0.005641 -0.448375 -0.030075 0.124746 0.130751 0.284332 0.193675 0.042902 -0.233810 -0.247565 -0.205490 -0.196728 0.272858 0.234002
银行 -0.288634 0.470711 -0.566294 -0.746055 -0.230017 -0.028365 -0.592846 -0.423286 0.292382 -0.353149 0.120939 -0.554838 -0.211029 0.265053 -0.518872 0.034399 0.402642 0.351585 0.248519 0.142683 -0.322184 -0.539546 0.209129 -0.077946 -0.119009 0.028204 -0.188326 0.165845 -0.351654 0.228750 0.182598 0.108073 -0.409918 -0.293308 0.008662 -0.287574 -0.101414 0.013899 -0.329363 -0.139513 -0.024736 -0.057729 0.353557 0.013196 0.149838 0.086792 0.556732 -0.365644 0.095639 0.054800 0.054213 0.102898 0.589509 0.322480 0.265945 0.205099 -0.457215 0.116566 0.380916 0.652932 -0.073322 0.009956 0.351063 0.453153 0.901514 -0.247414 -0.154460 0.469338 -0.229229 0.252222 0.271159 -0.162174 -0.158463 -0.677786 0.157551 -0.148636 -0.183805 0.411065 -0.086240 0.077009 -0.584017 -0.143606 0.008454 -0.266245 -0.015122 0.366912 0.250918 -0.457477 -0.371251 0.328390 0.094974 0.693559 0.369187 -0.115640 -0.169785 -0.399428 -0.038421 -0.049299 0.398480 0.124488
证券 -0.345990 0.534410 -0.633171 -0.798192 -0.191300 -0.059790 -0.731865 -0.442272 0.295710 -0.402041 0.105637 -0.546600 -0.283087 0.283664 -0.541820 0.033249 0.468255 0.371620 0.284293 0.155994 -0.368185 -0.505738 0.205324 -0.071574 -0.141912 0.002461 -0.185723 0.195242 -0.403938 0.192101 0.126887 0.107516 -0.526455 -0.262480 0.080093 -0.299152 -0.114264 0.058735 -0.269630 -0.104901 -0.051252 -0.124784 0.362528 0.037911 0.128526 0.136729 0.538166 -0.450541 0.142316 0.066989 0.109354 0.121344 0.686573 0.365466 0.299408 0.220055 -0.556066 0.012882 0.447962 0.741819 -0.094691 -0.015630 0.382544 0.596818 0.984564 -0.298148 -0.194478 0.565932 -0.263669 0.210561 0.265638 -0.174102 -0.138145 -0.718240 0.197747 -0.226147 -0.143395 0.477383 -0.170421 0.071215 -0.636240 -0.152734 0.047355 -0.338814 -0.046007 0.422456 0.313138 -0.515892 -0.413246 0.304439 0.141897 0.807736 0.477750 -0.122992 -0.138798 -0.474766 -0.103714 -0.060538 0.396993 0.175669
交易 -0.062531 -0.032325 -0.204598 -0.120460 0.150790 -0.100160 0.061545 -0.174648 -0.025814 0.029232 0.406205 -0.411085 0.090084 0.061752 -0.095366 -0.016741 -0.121330 0.035681 -0.126189 0.045647 -0.086843 -0.204970 0.299636 -0.239164 0.140029 0.079474 -0.019092 0.060752 -0.348752 0.369052 0.132727 -0.116894 0.123587 -0.079075 -0.310712 -0.099213 -0.077069 -0.024682 -0.158758 -0.113982 0.317360 0.278779 -0.099791 0.158494 0.194327 0.104774 -0.034349 -0.044694 -0.144682 -0.030191 -0.216207 0.133920 -0.032156 -0.156828 -0.146405 0.219223 0.231736 0.228481 0.150936 0.296520 0.012506 0.057634 0.334269 -0.025410 0.277024 0.115272 -0.076337 0.076743 0.173597 0.378931 0.316080 -0.037426 -0.176505 0.067532 -0.160509 -0.013193 -0.139540 -0.170566 0.044226 -0.119820 -0.144984 -0.171080 0.137561 0.182286 -0.038450 0.305038 -0.047040 -0.216835 0.195272 0.162283 0.330635 -0.142883 -0.054580 0.162657 -0.143188 0.131340 -0.049398 -0.237583 0.288562 0.107882
密码 -0.265280 -0.186232 -0.385431 -0.155138 0.410605 -0.136750 0.343247 -0.115793 -0.110291 -0.029783 0.670151 -0.217265 0.096197 0.176017 -0.224981 -0.043065 -0.110150 0.073242 0.044587 -0.300603 -0.040490 -0.232527 0.482101 -0.190606 0.296665 0.182140 0.004762 -0.225434 -0.253348 0.651214 -0.082157 -0.300771 0.191648 -0.162132 -0.692700 -0.102186 -0.136184 -0.065090 0.163973 -0.070769 0.264527 0.310535 -0.193677 0.045644 0.222879 0.114819 -0.153926 0.278143 -0.326038 0.207304 -0.206965 0.302626 -0.132534 -0.324579 -0.402970 0.110866 0.668918 0.131258 0.087967 0.324546 0.026688 0.055509 0.397329 -0.268792 0.336544 0.408142 0.105967 -0.209569 0.123264 0.668643 0.563645 0.023665 -0.128835 -0.001138 -0.207150 -0.033711 -0.142658 -0.378696 0.134020 -0.170393 0.305622 -0.426058 0.104477 0.095662 0.298519 0.438680 -0.123103 0.076928 0.279626 0.092074 0.562872 -0.395282 -0.280954 0.263423 0.096757 0.388094 0.107426 -0.255194 0.221980 0.044424
开通 0.462692 -0.199787 0.360825 0.531938 0.158929 -0.113089 0.141980 0.051685 0.378675 0.774145 -0.260192 -0.348724 0.168447 -0.334365 0.663031 -0.257831 -0.512592 -0.123449 -0.538791 0.542438 0.440511 0.709358 -0.157411 -0.241891 0.343829 -0.329321 0.195710 0.260241 -0.818056 -0.590863 0.402498 0.454372 -0.023889 0.238279 0.688540 -0.077402 0.132451 -0.453688 -0.132772 0.028600 0.368615 0.111415 -0.294614 0.187908 0.209295 0.561353 -1.009000 -0.270907 0.524856 -0.704018 -0.401067 -0.334037 -0.128715 -0.623425 0.354711 0.342612 -0.553516 0.365486 -0.122273 -0.196350 -0.109872 -0.106400 -0.251286 0.649426 -0.892032 -0.087990 -0.337035 0.797009 0.758564 -0.785664 -0.519116 0.329277 -0.032755 0.556275 -0.204670 0.181780 0.237344 0.185344 -0.164542 -0.109315 -0.689292 0.328443 0.758391 0.424252 -0.250863 -0.254104 -0.358266 -0.259872 0.445189 -0.043192 -0.054047 -0.098105 0.310660 -0.041074 -0.255224 -0.048882 -0.544983 -0.416163 0.555604 0.172046
开户 0.423962 -0.140540 0.101569 0.054994 0.009754 0.049219 0.346687 0.064173 0.478071 0.324530 -0.130315 -0.306534 0.471462 -0.075246 0.220970 -0.116336 -0.339722 0.325320 -0.328086 0.331489 0.537340 0.567525 -0.028406 -0.263902 0.215543 -0.346751 -0.068106 0.014031 -0.333035 -0.352076 0.313378 0.485932 0.046603 0.017059 0.479442 -0.064690 0.123382 -0.361974 -0.409384 -0.123661 0.211353 0.208225 -0.208453 0.129267 0.124645 0.529267 -0.565130 -0.152058 0.303896 -0.671009 -0.288518 -0.458385 -0.157718 -0.400186 0.342430 0.395121 -0.285543 0.469601 -0.169038 -0.191305 -0.035403 -0.025876 -0.358585 0.312008 -0.758572 0.130310 0.037499 0.513506 0.441369 -0.362249 -0.576249 0.290095 -0.066159 0.309264 -0.020378 0.371151 0.160548 0.220081 -0.161326 -0.102380 -0.342610 0.025295 0.403346 0.019011 -0.078570 -0.559535 -0.399898 0.010379 0.103653 -0.048846 -0.117599 -0.186645 0.199611 0.063198 -0.005995 0.086466 -0.175576 -0.259265 0.598257 0.031322
创业板 0.482526 -0.207312 0.398737 0.573999 0.171792 -0.103182 0.114424 0.063429 0.379616 0.822251 -0.276403 -0.363782 0.150570 -0.376044 0.679532 -0.252719 -0.546304 -0.169534 -0.556208 0.554965 0.418143 0.720015 -0.154309 -0.245967 0.350765 -0.328882 0.211421 0.293861 -0.863723 -0.615049 0.432025 0.472826 -0.016215 0.262651 0.708317 -0.069284 0.111127 -0.466790 -0.115452 0.051303 0.365919 0.104685 -0.276752 0.182934 0.222448 0.574907 -1.045634 -0.289224 0.555857 -0.727663 -0.421055 -0.314988 -0.128040 -0.627934 0.375169 0.348663 -0.581703 0.391324 -0.107461 -0.176507 -0.119563 -0.097438 -0.251056 0.684932 -0.911834 -0.115060 -0.381688 0.829744 0.779265 -0.832653 -0.526257 0.333619 -0.028020 0.575613 -0.211758 0.162165 0.256953 0.184712 -0.169368 -0.120406 -0.738888 0.344932 0.788133 0.464588 -0.260782 -0.227582 -0.359399 -0.300622 0.471166 -0.034020 -0.075490 -0.082255 0.312810 -0.034104 -0.272456 -0.073418 -0.565744 -0.429774 0.550159 0.193463
佣金 0.477859 -0.287925 0.002679 -0.124624 -0.075591 0.171979 0.355895 0.073723 0.277082 0.175457 0.069078 -0.224970 0.388269 -0.024063 -0.155577 -0.004644 -0.351822 0.182118 -0.153304 0.039283 0.133295 -0.061546 0.158884 -0.110726 0.141341 -0.118886 -0.029067 -0.101789 -0.085951 0.225399 0.308685 0.301769 0.190667 -0.293872 -0.107744 0.116691 -0.126232 -0.338138 -0.311536 -0.166153 -0.114354 0.188525 0.077476 -0.038760 0.219043 0.100738 -0.185525 0.203750 0.037914 -0.311422 -0.262685 -0.181491 -0.276460 -0.078513 0.138611 0.288862 0.135249 0.722420 -0.186411 -0.065650 -0.009133 0.122483 -0.136746 -0.120705 -0.328160 0.144314 0.130172 0.048553 0.133974 0.079538 -0.178321 0.238591 -0.145507 -0.008634 0.019261 0.459940 0.052631 0.145238 0.013892 -0.222312 -0.214860 -0.142721 0.119537 0.213818 0.331741 -0.447533 -0.294190 0.042350 0.043952 0.191383 -0.148070 -0.223787 -0.356327 0.307530 0.019415 0.167061 0.235618 -0.152211 0.342359 0.080731
手机 -0.136451 -0.304776 -0.262102 0.067143 0.492949 -0.149123 0.233089 -0.081068 -0.203737 0.155875 0.596045 -0.235448 -0.010411 0.072801 0.011092 -0.035455 -0.281086 -0.055590 -0.012468 -0.292959 -0.082499 -0.005501 0.351533 -0.225760 0.446170 0.037585 0.035655 -0.195249 -0.464844 0.600357 -0.066742 -0.170681 0.186635 -0.181413 -0.512893 0.029916 -0.014016 0.036837 0.188879 -0.039658 0.294125 0.260262 -0.311542 0.207616 0.167550 0.178204 -0.481155 0.192491 -0.205661 -0.014166 -0.312074 0.247465 -0.190295 -0.488430 -0.309638 0.276783 0.484957 0.134634 -0.029425 0.256359 0.069955 -0.017107 0.415655 -0.084644 0.142411 0.408017 0.013046 -0.009449 0.259794 0.431659 0.384049 0.048314 -0.099486 0.199765 -0.135699 0.081601 -0.045953 -0.378166 0.031100 -0.129748 0.139651 -0.383448 0.366182 0.252048 0.190429 0.363633 -0.127394 0.033124 0.478177 0.030623 0.529222 -0.452777 -0.200941 0.321867 0.087628 0.407432 -0.081587 -0.420198 0.219353 0.230031
新股 0.026899 -0.085365 -0.174431 -0.155333 0.009705 -0.283203 0.091712 -0.367579 0.420409 0.330909 0.187521 -0.556616 0.461752 -0.054280 -0.081641 -0.304889 -0.148475 0.241243 -0.440332 0.516899 0.452580 -0.119162 0.240692 -0.218584 0.028477 -0.139598 0.173441 0.204379 -0.633313 -0.056704 0.539405 -0.034598 -0.020563 -0.000800 0.061251 -0.239925 -0.451480 -0.929844 -0.442335 -0.415466 0.503616 0.361859 -0.010254 -0.249570 0.543378 0.454206 -0.157467 -0.382661 -0.028856 -0.085730 -0.129311 0.010422 0.164488 -0.331400 0.013985 0.160216 0.119484 0.463019 0.446387 0.186318 -0.229802 0.192795 0.061721 0.145595 -0.088105 -0.106810 -0.169579 0.446971 0.680689 0.170804 0.184980 0.306992 -0.392745 -0.025664 -0.513666 -0.107997 -0.011664 0.374745 0.209670 -0.394030 -0.730702 0.018392 0.126543 0.138081 0.137848 0.071114 -0.467876 -0.168365 -0.131868 0.343979 0.356779 -0.182384 -0.065791 -0.054057 -0.103183 -0.075568 -0.246617 -0.206760 0.693728 -0.134013
新股申购 -0.037956 -0.112688 -0.131415 -0.030147 0.300186 -0.453951 -0.053334 -0.153933 0.163100 0.093291 -0.008184 -0.113525 0.339129 -0.120887 0.000928 -0.261667 0.082751 0.008235 -0.352955 0.340231 0.439222 0.257949 0.127535 -0.060546 -0.047704 -0.203835 0.282978 0.109631 -0.402040 -0.103375 0.249843 -0.113223 -0.093640 0.142276 0.223884 -0.029558 -0.427050 -0.745048 -0.009531 -0.265012 0.250202 0.252477 -0.061128 -0.341859 0.434760 0.404542 -0.388083 -0.496086 -0.136056 0.161309 0.215197 0.243217 0.110088 -0.264076 -0.188151 -0.037508 0.265068 -0.031724 0.467525 0.105094 -0.148080 0.213949 -0.050247 0.061187 -0.189204 -0.139002 -0.165033 0.078000 0.639592 0.127300 0.193879 0.337358 -0.226452 0.170809 -0.362706 -0.310267 0.225946 0.397763 0.149387 -0.406353 -0.343472 -0.068883 0.021383 -0.062298 0.220503 0.060957 -0.352590 0.083933 -0.123475 0.116124 0.437817 -0.214918 -0.090534 0.096195 0.222229 0.026256 -0.170209 -0.161164 0.284129 -0.056464
条件 -0.052128 -0.109057 -0.102198 0.000157 0.337246 -0.403023 -0.058789 -0.072673 0.187728 0.083464 -0.086378 0.048150 0.311218 -0.122463 -0.021535 -0.261150 0.131226 0.003487 -0.277839 0.249136 0.477542 0.330981 0.087185 0.008468 -0.086999 -0.232743 0.276957 0.066570 -0.285936 -0.208247 0.177663 -0.093875 -0.136748 0.187633 0.272269 0.001357 -0.436556 -0.701440 0.109918 -0.186553 0.121323 0.146682 -0.038633 -0.373175 0.366239 0.369861 -0.394671 -0.427787 -0.086838 0.175122 0.283607 0.224681 0.125570 -0.246420 -0.141078 -0.114126 0.238863 -0.137220 0.399053 0.037279 -0.163322 0.194157 -0.169874 0.066648 -0.271129 -0.115846 -0.107159 0.015832 0.514275 0.018302 0.145034 0.329835 -0.137673 0.143923 -0.315417 -0.340335 0.278800 0.404311 0.114365 -0.383759 -0.177590 -0.042867 -0.031928 -0.157638 0.284868 -0.011036 -0.320868 0.168830 -0.169996 0.022488 0.352291 -0.179263 -0.083423 0.069319 0.283239 -0.002763 -0.140051 -0.081413 0.175510 -0.106939
账号 -0.029228 -0.281913 -0.215132 0.146065 0.385887 -0.155231 0.193110 -0.100121 -0.084445 0.242612 0.385172 -0.222975 0.075429 0.030028 0.079541 -0.116809 -0.303331 0.000653 -0.106212 -0.118864 0.087133 0.093004 0.231439 -0.197885 0.401556 -0.063818 0.070405 -0.130890 -0.460576 0.373339 0.008611 -0.121653 0.120949 -0.148942 -0.282711 0.015250 -0.023384 -0.147518 0.056737 -0.115872 0.326870 0.222945 -0.294968 0.154587 0.195786 0.253422 -0.485167 0.056510 -0.100918 -0.090690 -0.255341 0.098651 -0.157753 -0.464322 -0.177269 0.264543 0.324792 0.146733 -0.028699 0.123396 0.006698 -0.010774 0.285487 0.006633 -0.017498 0.289974 0.009524 0.124263 0.352557 0.247567 0.179948 0.103341 -0.125342 0.221090 -0.183614 0.110462 0.003579 -0.185264 0.003287 -0.176125 -0.036083 -0.277044 0.374642 0.248510 0.147369 0.204661 -0.201989 0.032141 0.362773 0.058078 0.453142 -0.406909 -0.149385 0.207730 0.064664 0.287797 -0.169921 -0.372740 0.265070 0.145057
卖出 -0.121863 0.320663 -0.293772 -0.437568 0.148397 -0.118251 -0.614949 -0.236062 0.166832 -0.104435 0.017976 -0.407185 -0.026517 -0.029207 -0.381198 0.013483 0.283772 -0.062737 -0.059404 0.106373 -0.217406 -0.088911 0.201850 -0.105542 -0.172373 -0.166508 -0.008728 0.260483 -0.419928 -0.017428 0.277079 0.146313 -0.289934 0.052767 0.228911 -0.061300 -0.296182 -0.111238 -0.126675 -0.026571 -0.083568 -0.049981 0.266455 0.054023 0.235725 0.088381 0.151794 -0.503343 0.086741 0.034627 0.099381 0.231605 0.422736 0.128257 0.280952 0.148566 -0.332667 0.037357 0.384235 0.514790 -0.110737 0.185661 0.210704 0.439767 0.276528 -0.289335 -0.274543 0.269048 -0.112830 -0.033459 0.336253 -0.198218 -0.042562 -0.177922 0.026251 -0.421175 0.042868 0.315624 -0.115728 -0.101744 -0.447249 0.018826 0.027811 -0.159951 0.027373 0.348977 0.068232 -0.396413 -0.163975 0.056896 0.107561 0.452150 0.223182 0.079285 -0.104190 -0.309729 -0.137214 -0.149494 0.224090 0.248102
信用 0.098489 -0.105909 -0.098850 -0.045415 0.117040 -0.179519 0.110710 -0.160668 0.253144 0.223939 0.110669 -0.308726 0.314118 -0.037227 -0.023188 -0.188048 -0.136337 0.132348 -0.267814 0.270033 0.333372 0.058918 0.168477 -0.157985 0.085579 -0.141347 0.124600 0.072518 -0.410489 -0.007128 0.308133 0.040091 0.014916 0.002216 0.048476 -0.079658 -0.288509 -0.571995 -0.196587 -0.223568 0.246128 0.242601 -0.042876 -0.132350 0.364479 0.321743 -0.253469 -0.218286 -0.004538 -0.096972 -0.086405 0.036901 0.031775 -0.269622 0.001607 0.135898 0.132315 0.298124 0.220959 0.079175 -0.138989 0.108721 -0.010057 0.081336 -0.174729 -0.014503 -0.091964 0.230514 0.454206 0.079312 0.090847 0.217571 -0.232838 0.053126 -0.295546 -0.024708 0.057867 0.208611 0.085477 -0.288586 -0.369241 -0.036020 0.119819 0.106736 0.152621 -0.018833 -0.317511 -0.055505 -0.023595 0.172146 0.220500 -0.196098 -0.092113 0.048929 0.010241 0.023753 -0.133149 -0.179432 0.432954 -0.048108
新 0.052385 0.072814 -0.178476 -0.131576 -0.026442 -0.210562 -0.231175 -0.386567 0.202737 0.248899 0.205977 -0.739262 0.171469 -0.041297 -0.050801 -0.122555 -0.136660 0.084246 -0.320216 0.435127 0.028622 -0.170593 0.198504 -0.314011 0.052951 -0.172625 0.019403 0.319791 -0.651396 0.078850 0.454501 0.050150 0.002815 -0.056571 0.140010 -0.202999 -0.158996 -0.333090 -0.539265 -0.310905 0.496322 0.308718 0.006443 0.132671 0.359355 0.270742 -0.050023 -0.471097 0.033086 -0.276895 -0.246024 -0.018219 0.177393 -0.210013 0.162727 0.350225 -0.169938 0.380819 0.325128 0.312107 -0.093238 0.117825 0.272695 0.332668 0.166439 -0.166146 -0.283498 0.562924 0.429464 0.076762 0.137122 0.011418 -0.297152 0.038519 -0.269776 -0.078714 -0.100044 0.240059 0.018854 -0.142024 -0.795197 0.049443 0.278969 0.259749 -0.205021 0.215505 -0.158194 -0.413516 0.042850 0.295440 0.263229 0.055572 0.150182 0.031964 -0.339719 -0.172140 -0.354682 -0.320601 0.546343 0.150321
客户 -0.126331 -0.068428 -0.221960 -0.149798 -0.327517 0.072580 0.145150 -0.415272 -0.385190 -0.065452 0.615352 -0.622821 -0.112606 0.022217 -0.068215 0.161161 -0.222521 0.069009 -0.070225 0.157412 -0.491719 -0.806211 0.191068 -0.176475 0.130659 0.459756 -0.185382 0.089396 -0.282782 0.858612 0.123433 -0.228768 0.266814 -0.322941 -0.744079 -0.072629 0.195586 0.254862 -0.557821 -0.218213 0.515063 0.356558 -0.058432 0.283764 0.023972 -0.263612 0.414492 0.079271 -0.328543 0.029131 -0.453203 0.010522 -0.207071 0.140803 -0.359929 0.247016 0.152807 0.474468 0.237873 0.462966 0.231858 0.011731 0.708254 -0.347777 0.863420 0.151108 -0.064731 0.160987 0.142830 0.852942 0.380238 -0.016346 -0.297946 -0.043884 -0.035825 0.208192 -0.540882 -0.442289 0.282040 0.184248 -0.430322 -0.254505 0.157836 0.389384 -0.308179 0.573734 0.064931 -0.458176 0.327771 0.512990 0.348062 -0.129171 -0.113192 0.135437 -0.453574 0.210643 0.125857 -0.251519 0.359650 0.245340
编号 -0.169020 -0.197283 -0.187299 -0.121501 -0.375196 0.071207 0.368565 -0.450048 -0.398376 0.010582 0.727871 -0.588377 0.042516 -0.003659 -0.087639 0.095485 -0.291679 0.078799 -0.147009 0.153548 -0.372017 -0.978944 0.255008 -0.143926 0.103679 0.522669 -0.136323 0.029533 -0.185548 0.947231 0.173913 -0.351273 0.407202 -0.334650 -0.941467 -0.086598 0.076741 0.047443 -0.609388 -0.314089 0.610666 0.462850 -0.087584 0.145373 0.101511 -0.317602 0.494959 0.217056 -0.466583 0.170244 -0.472769 0.025772 -0.326200 0.092460 -0.481751 0.155022 0.419675 0.565273 0.277027 0.377618 0.193720 0.088546 0.698740 -0.638701 0.829706 0.221669 0.010148 -0.019532 0.245605 1.047113 0.479838 0.077248 -0.378763 -0.060826 -0.196675 0.232936 -0.624475 -0.508954 0.452741 0.088409 -0.363763 -0.275974 0.030947 0.449214 -0.187632 0.554590 -0.082284 -0.327317 0.293524 0.588223 0.416029 -0.360344 -0.323338 0.133535 -0.451366 0.310223 0.226571 -0.190934 0.368436 0.118601
时间 0.126541 0.099732 -0.096134 -0.130007 -0.057491 0.010226 -0.099373 -0.138520 0.100545 0.014206 0.124697 -0.449495 0.042704 0.048115 -0.037326 0.024056 -0.079829 0.100651 -0.116590 0.200312 -0.117981 -0.088923 0.101320 -0.208526 0.072785 0.019360 -0.085878 0.127492 -0.333476 0.169328 0.209202 0.155236 -0.020725 -0.112001 -0.024865 -0.074034 0.022295 0.059549 -0.279242 -0.048446 0.171170 0.133555 -0.005829 0.220610 0.095445 0.095448 0.035865 -0.165939 0.095578 -0.258733 -0.179439 -0.039684 0.049578 0.031858 0.084433 0.281360 -0.159228 0.318336 0.089566 0.246885 0.022038 -0.007831 0.196372 0.202979 0.173182 -0.063087 -0.125963 0.287509 0.082546 0.068262 0.032711 -0.061903 -0.135823 -0.011407 0.023320 0.113350 -0.079919 0.019694 -0.073709 -0.010993 -0.363882 -0.026491 0.184677 0.169238 -0.190106 0.089585 0.054769 -0.357591 0.090242 0.145619 0.036061 0.144074 0.122929 0.080430 -0.220653 -0.020242 -0.060875 -0.185723 0.331861 0.171171
权限 0.370838 -0.111685 0.140847 0.212991 -0.043007 -0.026678 0.066071 -0.134405 0.194673 0.426033 0.034511 -0.587478 0.157812 -0.157019 0.353575 -0.090137 -0.406265 0.012825 -0.389534 0.430197 0.131990 0.185403 -0.018542 -0.303923 0.263103 -0.139706 0.039206 0.207329 -0.677668 -0.033110 0.399108 0.311360 0.069021 -0.043612 0.240535 -0.028867 0.124163 -0.207786 -0.407987 -0.110545 0.376826 0.249946 -0.166571 0.268948 0.193435 0.336263 -0.461200 -0.229365 0.249447 -0.545448 -0.420024 -0.219293 -0.120618 -0.323623 0.168417 0.422168 -0.330255 0.526689 -0.001533 0.048452 -0.004079 -0.043252 0.100721 0.345632 -0.285014 -0.040128 -0.250589 0.595619 0.507942 -0.227714 -0.232777 0.121592 -0.201654 0.321263 -0.114668 0.280816 -0.017082 0.045406 -0.078040 -0.085377 -0.678584 0.117367 0.531537 0.427970 -0.281535 -0.088767 -0.169480 -0.387947 0.364607 0.165177 0.029032 -0.083976 0.151980 0.088738 -0.333171 0.029034 -0.307559 -0.407728 0.559907 0.223805
三板 -0.012545 0.023659 -0.157638 -0.090647 -0.057619 -0.229963 -0.098505 -0.365666 0.193211 0.243694 0.222815 -0.627916 0.215287 -0.046547 -0.031567 -0.155995 -0.122050 0.082863 -0.354930 0.414029 0.109270 -0.217031 0.185716 -0.247962 0.055508 -0.115854 0.062192 0.266865 -0.525759 0.076461 0.395679 -0.059679 0.028927 -0.037082 0.037133 -0.187648 -0.187150 -0.428556 -0.470766 -0.342177 0.496292 0.334593 -0.008991 0.014180 0.370838 0.242887 -0.005191 -0.365179 -0.037499 -0.118184 -0.194386 -0.032815 0.123333 -0.215394 0.062451 0.236796 -0.031429 0.315833 0.316671 0.227175 -0.119199 0.131068 0.257841 0.168678 0.133803 -0.127725 -0.224528 0.424429 0.456145 0.169743 0.185697 0.059475 -0.297734 0.022268 -0.322065 -0.097529 -0.130224 0.187437 0.086946 -0.197902 -0.687942 0.051478 0.181891 0.235379 -0.134931 0.209239 -0.222358 -0.296029 0.014677 0.284428 0.287938 -0.063565 0.076114 -0.021740 -0.267044 -0.115722 -0.304183 -0.240376 0.474675 0.032784
银行卡 -0.024226 0.069470 -0.220658 -0.234500 -0.139565 -0.141849 -0.027612 -0.369378 0.236159 0.130866 0.228258 -0.608595 0.177124 0.048301 -0.171834 -0.110549 -0.084652 0.176743 -0.181732 0.311544 0.071168 -0.356606 0.189556 -0.207304 0.076727 -0.041528 0.008923 0.159312 -0.484201 0.190734 0.407331 -0.016630 0.037473 -0.214651 -0.062726 -0.241197 -0.133902 -0.410365 -0.520401 -0.344946 0.406919 0.281613 0.076801 -0.021841 0.342673 0.142817 0.154527 -0.235244 -0.083978 -0.098305 -0.236487 -0.018005 0.163008 -0.177264 0.067613 0.207277 -0.018594 0.411358 0.221157 0.263740 -0.055826 0.107022 0.270232 0.063671 0.297766 -0.071754 -0.114843 0.329793 0.349723 0.278943 0.218027 -0.002389 -0.292701 -0.166722 -0.237722 0.006669 -0.205781 0.193098 0.178481 -0.055214 -0.610394 -0.048577 0.116890 0.171406 0.003564 0.178640 -0.179664 -0.228438 -0.025168 0.373332 0.217517 0.015358 -0.014070 -0.061408 -0.287861 -0.085803 -0.125584 -0.219780 0.507789 -0.031398
找回 -0.104798 -0.106956 -0.165881 -0.123333 -0.310146 0.102574 0.237540 -0.340531 -0.374721 -0.075001 0.582556 -0.501564 -0.072840 0.009898 -0.062047 0.171223 -0.215669 0.052153 -0.047791 0.084549 -0.444379 -0.762848 0.169979 -0.132260 0.114488 0.462209 -0.168750 0.021291 -0.156704 0.825245 0.084464 -0.222985 0.291662 -0.307760 -0.768637 -0.036855 0.176795 0.246281 -0.464734 -0.177932 0.421051 0.331689 -0.067826 0.227453 -0.001792 -0.292707 0.394774 0.185830 -0.330049 0.079534 -0.418148 0.009548 -0.265329 0.152505 -0.381123 0.181550 0.223172 0.448889 0.171378 0.382459 0.225909 0.009673 0.617706 -0.439562 0.761190 0.189607 -0.002206 0.023846 0.100993 0.834154 0.351531 0.004563 -0.255527 -0.036104 -0.015390 0.237384 -0.513252 -0.465964 0.288641 0.158528 -0.280932 -0.253760 0.091250 0.341621 -0.223115 0.488334 0.046229 -0.341113 0.309796 0.451232 0.287670 -0.179413 -0.182451 0.146229 -0.379441 0.267138 0.205052 -0.196709 0.282664 0.193702
买入 -0.071965 0.023091 0.040036 0.069197 0.045840 -0.130093 -0.236619 -0.229661 0.148554 0.313773 -0.011903 -0.324816 0.133604 -0.208004 -0.009062 -0.130455 -0.080804 -0.223643 -0.366954 0.215808 0.101044 -0.065240 0.095661 -0.056897 -0.102645 -0.167619 0.143896 0.275523 -0.373772 -0.307878 0.391539 -0.047315 -0.039655 0.178760 0.246020 -0.074914 -0.308802 -0.385127 -0.228943 -0.133251 0.289996 0.042978 0.014981 -0.001699 0.242783 0.048499 0.046597 -0.371034 0.078671 -0.008932 -0.022819 -0.005062 0.140564 -0.146445 0.210358 0.088167 -0.158285 0.101269 0.261307 0.093483 -0.154042 0.213834 0.112384 0.135459 -0.147289 -0.237066 -0.267723 0.180860 0.239313 -0.138391 0.160280 -0.073263 -0.117208 0.154225 -0.350062 -0.304684 0.010813 0.175048 0.072183 -0.163195 -0.480624 0.235905 0.014745 0.133769 -0.067746 0.215523 -0.215756 -0.212257 -0.047190 0.041742 0.079255 -0.004152 0.044787 -0.156462 -0.207923 -0.251544 -0.306217 -0.069769 0.127629 0.018896
A股 0.039548 -0.036967 -0.182715 -0.331900 -0.179731 -0.151938 0.105119 -0.415117 0.408138 0.267903 0.308863 -0.712114 0.482541 -0.022657 -0.191408 -0.222682 -0.172696 0.284189 -0.433019 0.486069 0.270678 -0.442282 0.329007 -0.245544 -0.061500 -0.068294 0.080228 0.215742 -0.575567 0.126840 0.655224 0.050612 0.057721 -0.088868 -0.108918 -0.269592 -0.438691 -0.858506 -0.631513 -0.414648 0.503890 0.400253 0.081831 -0.203753 0.503983 0.291544 0.109889 -0.282314 -0.065473 -0.100700 -0.220920 -0.025649 0.146452 -0.198623 0.052531 0.224550 0.120674 0.680582 0.478887 0.268334 -0.202615 0.259216 0.149884 0.047754 0.072912 -0.074534 -0.147804 0.385627 0.555517 0.322410 0.254625 0.240027 -0.443901 -0.188476 -0.465409 -0.029003 -0.169214 0.308859 0.286185 -0.341956 -0.799622 0.023667 0.051262 0.196668 0.127144 0.094292 -0.434373 -0.291605 -0.170768 0.428732 0.250707 -0.150412 -0.091435 0.027373 -0.258752 -0.085835 -0.107595 -0.175018 0.758893 -0.067834
当日 -0.069042 0.256397 -0.255546 -0.573946 -0.081283 0.059658 -0.367975 -0.227077 0.128266 -0.197032 0.199562 -0.467502 0.033777 0.038529 -0.482374 0.125973 0.246274 0.031003 0.011219 0.044101 -0.342552 -0.444947 0.259347 -0.130839 -0.260639 0.057655 -0.090240 0.184921 -0.221730 0.282151 0.342994 0.156770 -0.114688 -0.085085 -0.120375 -0.061889 -0.295091 -0.027963 -0.283364 -0.046235 -0.116617 0.056445 0.352209 0.026732 0.164768 -0.113938 0.433397 -0.211583 -0.044264 0.057612 0.004007 0.223020 0.280666 0.273713 0.145555 0.138290 -0.111646 0.322193 0.344554 0.521263 -0.038071 0.204735 0.228277 0.124493 0.434128 -0.182135 -0.174791 0.055021 -0.230045 0.246466 0.410219 -0.204552 -0.131388 -0.346697 0.059094 -0.207182 -0.134937 0.163666 0.047884 -0.038602 -0.360508 -0.027913 -0.153178 -0.072012 0.084269 0.308037 0.089870 -0.380806 -0.179134 0.193817 -0.037565 0.384941 0.028489 0.163679 -0.198422 -0.171730 0.162537 -0.049983 0.251910 0.219099
当天 -0.082655 0.174164 -0.065511 -0.145123 0.089572 -0.111692 -0.466231 -0.203701 0.228129 0.177769 -0.132215 -0.271123 0.087894 -0.146319 -0.165346 -0.109739 0.114317 -0.176549 -0.250243 0.186357 0.036489 0.001329 0.123756 -0.037638 -0.238488 -0.243863 0.118624 0.300454 -0.332978 -0.372890 0.364871 0.061683 -0.192005 0.237717 0.369639 -0.100542 -0.395221 -0.344000 -0.160748 -0.041884 0.076200 -0.077412 0.155205 -0.008866 0.219670 0.060993 0.123553 -0.496805 0.168029 -0.003864 0.118931 0.079527 0.328829 -0.001568 0.349103 0.050216 -0.295067 0.005078 0.304829 0.208643 -0.208003 0.224572 0.029297 0.360007 -0.082716 -0.346394 -0.286223 0.209138 0.037923 -0.256419 0.191660 -0.149425 -0.062244 -0.026262 -0.238125 -0.415274 0.093092 0.329625 -0.046995 -0.160524 -0.456224 0.257470 -0.059660 -0.064802 -0.019859 0.213781 -0.107974 -0.259815 -0.228710 -0.027924 0.015286 0.261431 0.168207 -0.120174 -0.153026 -0.384574 -0.273044 0.002000 0.117881 0.069281
申购 0.020669 -0.074985 -0.122897 -0.069130 0.022041 -0.295263 0.015150 -0.320940 0.310794 0.284077 0.088655 -0.439650 0.377622 -0.099546 -0.006815 -0.274341 -0.108359 0.150913 -0.411587 0.472753 0.402820 -0.066755 0.154473 -0.159112 0.007879 -0.153927 0.180687 0.205940 -0.532598 -0.091072 0.439239 -0.055443 -0.045075 0.027206 0.141090 -0.155349 -0.376106 -0.793565 -0.372004 -0.365754 0.438885 0.296240 -0.036196 -0.217081 0.450958 0.372879 -0.159782 -0.416156 -0.037357 -0.033619 -0.061815 0.005970 0.132755 -0.261805 -0.011345 0.115922 0.075793 0.296045 0.422422 0.126986 -0.201400 0.184176 0.047126 0.117370 -0.107756 -0.136966 -0.172509 0.354308 0.614328 0.122506 0.138212 0.269414 -0.323118 0.032422 -0.443988 -0.144112 0.004607 0.352430 0.177400 -0.356928 -0.646992 0.049679 0.092189 0.111073 0.084320 0.062908 -0.378953 -0.131018 -0.105270 0.274566 0.327432 -0.191236 -0.031600 -0.052754 -0.082924 -0.090368 -0.250821 -0.166386 0.507454 -0.099589
费率 0.313809 -0.304926 -0.058684 0.067863 0.069297 -0.107291 0.222730 -0.055752 0.224941 0.289976 0.014562 -0.180379 0.370168 -0.073137 -0.016081 -0.211533 -0.338634 0.107590 -0.305367 0.183091 0.335563 0.073095 0.107721 -0.087819 0.211643 -0.237559 0.120450 -0.032316 -0.229879 0.062156 0.241061 0.028408 0.103530 -0.178334 0.021571 0.056204 -0.171916 -0.602933 -0.222006 -0.304971 0.158957 0.211442 -0.080240 -0.143987 0.345307 0.253801 -0.328071 -0.057184 -0.004697 -0.116743 -0.147617 -0.135724 -0.175767 -0.254047 0.034838 0.185094 0.177871 0.389787 -0.030223 -0.112802 -0.110266 0.126991 -0.052802 -0.052097 -0.329775 0.059121 0.059972 0.132000 0.439300 0.071230 -0.101790 0.288419 -0.192207 0.125598 -0.216644 0.216087 0.088977 0.235925 0.040545 -0.357775 -0.335938 -0.085910 0.185166 0.226433 0.279260 -0.294992 -0.390193 0.107973 0.029522 0.168730 0.182884 -0.355146 -0.292240 0.147764 0.090044 0.097555 -0.080264 -0.192157 0.290728 -0.022840
转账 0.157806 0.213970 -0.289888 -0.372285 -0.211252 0.003490 -0.212606 -0.413696 0.176224 -0.041558 0.305869 -0.890361 0.069602 0.146291 -0.176982 0.042781 -0.089520 0.255563 -0.149007 0.396400 -0.291085 -0.369387 0.218426 -0.343830 0.101080 0.113980 -0.183697 0.224017 -0.650627 0.448708 0.402699 0.216485 -0.083375 -0.295293 -0.165585 -0.181480 -0.010676 -0.005857 -0.613158 -0.199635 0.314275 0.277125 0.056683 0.297339 0.236992 0.150897 0.230344 -0.350969 0.072113 -0.348798 -0.320330 -0.032620 0.171095 0.148622 0.082709 0.468115 -0.266266 0.609774 0.293008 0.520440 0.058441 0.012083 0.464611 0.323287 0.554812 -0.121927 -0.221589 0.549901 0.189305 0.314766 0.166854 -0.099673 -0.336888 -0.181497 0.023883 0.188152 -0.230259 0.107401 -0.058138 -0.040494 -0.795673 -0.097027 0.257488 0.282492 -0.285412 0.250831 0.107812 -0.668582 0.070034 0.401866 0.144929 0.294892 0.181584 0.102412 -0.390497 -0.083111 -0.079439 -0.314178 0.651437 0.270529
查询 0.196872 -0.235781 -0.218959 0.035446 0.333073 -0.252123 0.028098 -0.060094 0.310144 0.271046 -0.042160 -0.118031 0.325876 -0.012086 -0.062798 -0.304216 -0.196744 0.124935 -0.238194 0.118204 0.429519 0.312485 0.170040 -0.077632 0.247297 -0.386906 0.187006 -0.042540 -0.391528 -0.083612 0.151761 0.002526 -0.092080 -0.091239 0.196763 0.019013 -0.275983 -0.674805 -0.004577 -0.261901 0.112212 0.097583 -0.099138 -0.156760 0.413555 0.445649 -0.533901 -0.241426 0.082290 -0.084739 -0.007256 -0.013984 0.035263 -0.372606 0.116040 0.178056 0.103344 0.143832 0.034979 -0.025139 -0.198699 0.101369 -0.085141 0.224167 -0.345321 0.022061 0.030389 0.239652 0.458531 -0.070799 -0.062623 0.288081 -0.143809 0.117398 -0.236174 0.015407 0.253328 0.394584 -0.083579 -0.429127 -0.290216 -0.131748 0.270586 0.066762 0.374303 -0.213208 -0.381060 0.138279 -0.046872 0.049540 0.325382 -0.241404 -0.154859 0.119104 0.245444 0.000989 -0.239488 -0.232121 0.299404 0.000724
存管 0.023503 -0.049897 -0.200748 -0.269754 -0.173337 -0.110005 0.163726 -0.332601 0.360983 0.228109 0.229507 -0.584755 0.339522 0.040651 -0.228987 -0.155803 -0.140995 0.289145 -0.223359 0.352188 0.257237 -0.377881 0.265311 -0.197114 0.068497 -0.056161 0.055917 0.097368 -0.468149 0.172019 0.538673 0.022886 0.136173 -0.215300 -0.128592 -0.299966 -0.280738 -0.684115 -0.584212 -0.400500 0.411698 0.345414 0.119462 -0.194095 0.417206 0.208740 0.143098 -0.158077 -0.109511 -0.137608 -0.245341 -0.047396 0.125026 -0.256418 0.084256 0.156778 0.143664 0.621333 0.208240 0.190602 -0.111158 0.176738 0.147094 -0.013810 0.179015 -0.015100 -0.058280 0.322288 0.464209 0.305810 0.203749 0.160929 -0.377664 -0.261919 -0.342256 0.095899 -0.174255 0.271492 0.296405 -0.117167 -0.618519 -0.071353 0.088578 0.152153 0.155830 0.036670 -0.353306 -0.115580 -0.135246 0.445402 0.175462 -0.080730 -0.159354 -0.059103 -0.247386 -0.028834 -0.016160 -0.166204 0.660248 -0.140226
网上 0.353193 -0.229406 0.155168 0.045488 -0.103908 0.073346 0.383599 -0.022378 0.277172 0.335465 0.053996 -0.290420 0.428621 -0.111992 0.103634 -0.095361 -0.343026 0.126802 -0.321055 0.245730 0.316335 0.026824 0.080414 -0.157090 0.077147 -0.100242 0.044421 0.019870 -0.219858 -0.021707 0.396438 0.246046 0.217265 -0.050686 0.033673 -0.011872 -0.118448 -0.462502 -0.376201 -0.182803 0.174670 0.269621 -0.048002 -0.047087 0.216932 0.193647 -0.234534 0.053990 0.049075 -0.331503 -0.270182 -0.213616 -0.234539 -0.235042 0.097305 0.210254 0.092447 0.606067 -0.036463 -0.154835 -0.048450 0.102453 -0.174732 -0.078938 -0.462954 0.082733 0.003149 0.148608 0.375691 -0.032700 -0.188924 0.244008 -0.195274 0.144374 -0.190206 0.299666 0.015515 0.079693 0.113999 -0.177545 -0.314292 0.056875 0.121129 0.241518 0.094342 -0.331157 -0.366450 -0.010959 0.079479 0.151488 -0.108626 -0.306141 -0.188317 0.105202 -0.110592 0.126057 0.028806 -0.126895 0.420992 -0.042822
股票交易 0.089090 -0.129181 -0.035180 -0.150695 -0.276287 0.042137 0.174939 -0.356084 0.109614 0.249884 0.483581 -0.774605 0.263340 -0.036725 -0.093312 -0.007281 -0.349782 0.088532 -0.348245 0.311421 -0.119077 -0.654008 0.290415 -0.296248 -0.025227 0.125730 -0.060115 0.225312 -0.464674 0.402901 0.563528 -0.000347 0.264856 -0.220951 -0.334215 -0.127789 -0.196483 -0.251119 -0.706076 -0.312142 0.533533 0.467235 0.026502 0.143171 0.273010 -0.046994 0.246129 -0.050102 -0.143998 -0.209345 -0.427140 -0.036331 -0.108239 -0.057376 -0.040964 0.388472 0.139619 0.775300 0.251806 0.253421 0.002089 0.179847 0.357563 -0.195816 0.260984 -0.005173 -0.171194 0.201796 0.331514 0.467135 0.249103 0.025084 -0.366730 -0.021379 -0.327159 0.214539 -0.329265 -0.068413 0.262173 -0.132770 -0.693010 -0.003074 0.029549 0.467582 -0.124764 0.195555 -0.209785 -0.415773 0.151444 0.454821 0.131564 -0.216277 -0.181178 0.117307 -0.481810 0.047257 0.044838 -0.229337 0.517613 0.085790
修改 0.054148 -0.108878 -0.197974 -0.207708 0.123275 -0.156446 0.292075 -0.227822 0.270905 0.168268 0.380982 -0.487820 0.435993 0.063165 -0.124632 -0.189794 -0.180935 0.232069 -0.299140 0.233312 0.303930 -0.160250 0.364202 -0.285563 0.113532 -0.007006 0.065174 0.026753 -0.453446 0.255571 0.365471 -0.024329 0.122132 -0.066607 -0.247381 -0.153721 -0.313878 -0.597368 -0.298132 -0.277488 0.371526 0.417166 -0.063003 -0.117106 0.439811 0.338928 -0.155566 -0.072046 -0.133531 -0.046418 -0.213526 0.081187 -0.036766 -0.296242 -0.140429 0.204105 0.363700 0.492567 0.284726 0.198777 -0.142197 0.158730 0.120872 -0.056362 -0.045112 0.126690 -0.034122 0.136378 0.462169 0.375380 0.295122 0.192054 -0.329572 -0.009822 -0.374583 0.020728 -0.077281 0.046986 0.172724 -0.354602 -0.293875 -0.139831 0.065991 0.163734 0.224175 0.089982 -0.366092 -0.110935 0.053942 0.257899 0.345846 -0.338463 -0.202016 0.145769 -0.058980 0.163520 -0.026475 -0.233275 0.591757 -0.069126
忘 -0.105904 -0.084490 -0.320222 -0.174247 0.137335 -0.170903 0.127119 -0.250326 0.126091 0.122187 0.358625 -0.387711 0.226893 0.071437 -0.148242 -0.164532 -0.092911 0.188450 -0.154695 0.128063 0.138368 -0.194367 0.303886 -0.180629 0.155069 0.013745 0.045862 0.008600 -0.415564 0.306845 0.187949 -0.131935 0.038138 -0.103484 -0.273833 -0.163849 -0.202880 -0.420547 -0.198756 -0.246314 0.343573 0.281888 -0.070268 -0.044340 0.327440 0.241749 -0.091095 -0.090846 -0.135417 0.040820 -0.158925 0.084175 0.053737 -0.240419 -0.119913 0.128825 0.261383 0.262830 0.245216 0.246177 -0.084230 0.086679 0.242345 0.002173 0.198854 0.129171 -0.033550 0.180578 0.317494 0.387679 0.294898 0.127941 -0.246148 -0.070835 -0.282792 -0.050251 -0.101216 0.031804 0.125427 -0.220380 -0.253636 -0.196853 0.150999 0.103691 0.157562 0.235137 -0.236610 -0.103009 0.028927 0.227219 0.430011 -0.191365 -0.091237 0.093558 -0.051886 0.091336 -0.079716 -0.217145 0.456378 -0.019360
三方 0.062840 0.046700 -0.142581 -0.044942 0.056957 -0.200445 -0.038503 -0.152657 0.325173 0.177681 -0.068498 -0.282565 0.179847 0.042325 -0.058103 -0.172764 -0.034776 0.171014 -0.126792 0.235576 0.311547 0.129989 0.050336 -0.127339 0.132007 -0.254152 0.073778 0.057853 -0.382153 -0.131184 0.224745 0.064019 -0.069187 -0.079700 0.267598 -0.173192 -0.075103 -0.410781 -0.260753 -0.218507 0.219270 0.106922 0.013896 -0.052936 0.256508 0.295075 -0.166166 -0.281914 0.074816 -0.182893 -0.070252 -0.084924 0.186651 -0.287863 0.218321 0.110699 -0.128469 0.139733 0.020820 0.028346 -0.098326 0.021173 0.008010 0.262001 -0.050485 -0.073374 -0.035277 0.355752 0.344279 -0.109813 -0.039038 0.042663 -0.124194 -0.053117 -0.169385 -0.024382 0.022347 0.323634 0.007941 -0.040519 -0.369362 -0.012120 0.188793 -0.006491 0.054147 -0.074450 -0.168780 -0.010694 -0.070318 0.130719 0.136182 0.074693 0.080735 -0.127399 -0.093733 -0.110138 -0.215460 -0.182670 0.352914 -0.092688
上市 -0.029062 0.029968 -0.227385 -0.233922 0.006589 -0.253741 -0.034143 -0.325388 0.463891 0.264100 0.113936 -0.495220 0.342898 0.000369 -0.151842 -0.265577 -0.052240 0.254714 -0.329166 0.429428 0.361684 -0.108946 0.252393 -0.175180 -0.013202 -0.168499 0.129691 0.204364 -0.554961 -0.147481 0.460329 -0.014984 -0.084839 0.028624 0.114092 -0.292599 -0.424442 -0.818076 -0.365833 -0.331279 0.392038 0.235992 0.045975 -0.219385 0.479473 0.429520 -0.075063 -0.389123 0.049018 -0.083136 -0.071790 0.018494 0.292255 -0.249211 0.129908 0.111789 -0.004064 0.338758 0.400622 0.237434 -0.239151 0.151437 0.035692 0.280184 -0.000517 -0.135687 -0.170786 0.490477 0.498625 0.051475 0.147922 0.215468 -0.310649 -0.138272 -0.413472 -0.183525 0.007861 0.409171 0.132958 -0.330726 -0.649636 0.034347 0.118787 0.029764 0.112291 0.105671 -0.375854 -0.192743 -0.213269 0.267454 0.290266 0.015131 0.054609 -0.100710 -0.095833 -0.162015 -0.258327 -0.149443 0.611886 -0.129075
ST -0.185990 0.043872 -0.114942 -0.091541 -0.006068 -0.198150 -0.162835 -0.320614 0.209360 0.216357 0.121317 -0.392462 0.159239 -0.099332 -0.118043 -0.175907 -0.015316 -0.057802 -0.330884 0.245966 0.131567 -0.232745 0.175264 -0.076238 -0.079141 -0.085020 0.135285 0.227704 -0.363058 -0.166720 0.362863 -0.155700 -0.076379 0.073111 0.101342 -0.187876 -0.343582 -0.474484 -0.254600 -0.215075 0.380897 0.119387 0.010979 -0.067149 0.302712 0.086883 0.140590 -0.350999 0.000240 0.097651 -0.013098 0.027819 0.218945 -0.140575 0.099943 0.071324 -0.024946 0.100159 0.360786 0.195662 -0.161406 0.208172 0.190394 0.082749 0.057967 -0.191372 -0.208046 0.182676 0.280733 0.080343 0.269013 -0.018454 -0.188252 0.004084 -0.402736 -0.298150 -0.069144 0.212020 0.128491 -0.220726 -0.511338 0.133667 -0.030335 0.083782 -0.017079 0.275022 -0.234078 -0.189607 -0.124243 0.127646 0.228995 -0.035721 0.040003 -0.175070 -0.170264 -0.223169 -0.251943 -0.067095 0.217803 -0.061237
更换 -0.018460 0.085740 -0.116324 -0.127097 -0.158760 -0.028178 -0.085911 -0.222379 0.039095 0.040675 0.133162 -0.369775 -0.031694 0.052919 -0.146472 0.013768 -0.036885 0.066477 0.015033 0.122178 -0.109148 -0.311910 0.071017 -0.118639 0.061169 0.004063 -0.049683 0.101089 -0.233741 0.195911 0.222187 -0.004503 0.093117 -0.221373 -0.058567 -0.169354 0.031879 -0.027789 -0.388503 -0.197057 0.225038 0.140011 0.108697 0.057633 0.108553 -0.062735 0.239052 -0.104083 -0.083391 -0.114621 -0.190250 -0.025542 0.109645 -0.059767 0.102182 0.126331 -0.072720 0.251011 0.017185 0.165041 0.040115 0.043480 0.229186 0.012811 0.353798 -0.058790 -0.059514 0.187322 0.095179 0.172359 0.120516 -0.119475 -0.146149 -0.172391 -0.045411 0.057025 -0.202889 0.081228 0.126817 0.157776 -0.356977 -0.045211 0.082190 0.140370 -0.100124 0.129934 0.010228 -0.151670 0.000209 0.257771 0.055213 0.111248 -0.014514 -0.066014 -0.292437 -0.075418 -0.020061 -0.121599 0.217112 0.024355
通 -0.063660 -0.020507 -0.190871 -0.319046 -0.316669 -0.196687 0.089550 -0.539744 0.315746 0.249151 0.378262 -0.758670 0.454139 -0.059494 -0.158543 -0.273660 -0.164309 0.275337 -0.519852 0.599967 0.235853 -0.668637 0.280156 -0.223174 -0.115702 0.033953 0.123723 0.295768 -0.563485 0.192444 0.671854 -0.119431 0.038349 -0.117853 -0.205326 -0.275987 -0.433583 -0.915815 -0.718577 -0.499640 0.649696 0.467313 0.060291 -0.229378 0.521808 0.175479 0.300032 -0.327388 -0.161996 0.071594 -0.221478 0.007800 0.141679 -0.119154 -0.087069 0.158411 0.150975 0.635082 0.629565 0.298949 -0.217450 0.291574 0.284447 -0.086999 0.238343 -0.128790 -0.173961 0.320044 0.626140 0.495401 0.374042 0.236270 -0.511036 -0.224225 -0.531808 -0.099493 -0.298326 0.266327 0.387174 -0.380851 -0.917025 0.066848 -0.048835 0.260719 0.058484 0.201100 -0.436584 -0.335081 -0.164438 0.531719 0.341104 -0.219959 -0.097656 -0.053183 -0.339241 -0.093963 -0.113975 -0.123679 0.729764 -0.115795
调整 0.153457 -0.268489 0.002296 0.033331 -0.069674 -0.109783 0.242903 -0.168682 0.112687 0.266721 0.171861 -0.258853 0.348813 -0.126862 0.008315 -0.179798 -0.310538 0.055844 -0.351424 0.250970 0.240352 -0.211099 0.126035 -0.097217 0.111655 -0.074571 0.132682 0.051591 -0.220602 0.138133 0.310656 -0.105747 0.171622 -0.130415 -0.144143 0.015624 -0.218224 -0.587907 -0.339939 -0.347597 0.308401 0.308048 -0.073143 -0.163841 0.337118 0.119205 -0.098033 -0.053296 -0.138576 0.018164 -0.180689 -0.061369 -0.158133 -0.205836 -0.095612 0.122650 0.272394 0.418725 0.141475 -0.049504 -0.098262 0.180452 0.066013 -0.211943 -0.138474 0.034973 -0.004986 0.057432 0.478495 0.256762 0.062862 0.264882 -0.270515 0.090152 -0.323427 0.116473 -0.069061 0.109477 0.213791 -0.316132 -0.410942 -0.028728 0.071645 0.273267 0.155857 -0.103039 -0.369169 0.016393 0.047317 0.259078 0.221769 -0.413138 -0.286040 0.101563 -0.033909 0.108629 -0.051849 -0.138955 0.305436 -0.061195
委托 0.068611 0.016826 -0.158021 -0.216507 -0.094095 -0.108849 -0.016424 -0.334199 0.264789 0.192325 0.260208 -0.659056 0.234371 0.009511 -0.099649 -0.104192 -0.143502 0.170542 -0.274556 0.376985 0.060828 -0.264909 0.240810 -0.262347 0.028085 -0.008438 0.013310 0.216175 -0.561435 0.155551 0.442897 0.059342 0.031082 -0.098277 -0.071945 -0.196148 -0.233835 -0.421876 -0.481241 -0.261180 0.393796 0.296667 0.042084 0.023410 0.349780 0.249069 0.022655 -0.277540 0.011068 -0.206885 -0.242263 -0.006686 0.128197 -0.132765 0.070056 0.281186 -0.031388 0.514693 0.308126 0.316486 -0.074279 0.113702 0.211024 0.180842 0.170494 -0.081982 -0.197197 0.426875 0.377919 0.202452 0.152476 0.093329 -0.320986 -0.067671 -0.262273 0.021791 -0.109864 0.173457 0.109901 -0.184105 -0.667933 -0.015255 0.171551 0.205675 -0.067664 0.164380 -0.207698 -0.353797 -0.000696 0.322158 0.189765 0.012804 0.034320 0.042829 -0.263587 -0.065801 -0.141172 -0.237779 0.582200 0.052627
失败 0.099926 0.195542 -0.242580 -0.198481 -0.022712 -0.109491 -0.305851 -0.274874 0.135839 0.003819 0.108822 -0.604040 -0.015890 0.077454 -0.060168 -0.014274 -0.037686 0.124251 -0.118908 0.289215 -0.148622 -0.035879 0.106539 -0.254785 0.136180 -0.067317 -0.109215 0.188004 -0.579004 0.154198 0.235062 0.158975 -0.144050 -0.145982 0.121901 -0.118322 0.059295 -0.015976 -0.340069 -0.129910 0.240563 0.129940 -0.014413 0.247737 0.167798 0.246901 -0.044025 -0.400937 0.115291 -0.289768 -0.194083 -0.027646 0.208105 -0.005934 0.147447 0.368300 -0.347242 0.252094 0.196536 0.353661 0.014972 -0.025371 0.311632 0.440280 0.293067 -0.123699 -0.203875 0.529068 0.204741 0.033487 0.042379 -0.072116 -0.172145 -0.016047 0.032123 0.044259 -0.067700 0.164158 -0.154041 -0.045411 -0.605648 -0.045609 0.330074 0.165350 -0.241783 0.177275 0.096103 -0.481644 0.092456 0.187252 0.174012 0.248157 0.269616 0.057853 -0.213655 -0.119302 -0.241044 -0.313067 0.441958 0.247293
办理 0.277761 0.004427 0.070532 0.133337 -0.027222 -0.020057 -0.066091 -0.109385 0.128529 0.228721 -0.070106 -0.470052 0.019805 -0.084188 0.296533 -0.013020 -0.262245 0.054057 -0.241454 0.353751 0.047476 0.312728 -0.105865 -0.293379 0.238935 -0.148615 -0.054968 0.197892 -0.542427 -0.089753 0.205299 0.308937 -0.029130 -0.025232 0.328017 -0.003686 0.248517 0.044747 -0.309762 -0.039500 0.263479 0.131965 -0.147820 0.311264 0.067733 0.329977 -0.401467 -0.285489 0.266221 -0.521675 -0.316625 -0.240383 -0.030712 -0.209207 0.191013 0.418451 -0.468297 0.317406 -0.025333 0.086023 0.022953 -0.132705 0.070935 0.450993 -0.180401 -0.050088 -0.207802 0.620279 0.312577 -0.250456 -0.317557 0.047395 -0.087004 0.286091 0.059730 0.238115 0.041192 0.078263 -0.213315 0.037074 -0.506972 0.055542 0.518017 0.221038 -0.339005 -0.082150 -0.044979 -0.342551 0.289376 0.069126 -0.009282 0.054689 0.322186 0.041404 -0.233320 -0.024719 -0.331609 -0.349722 0.434385 0.254856
身份证 0.263603 -0.080636 -0.031453 0.079979 0.086478 -0.197164 0.036275 -0.234653 0.275620 0.356181 0.039426 -0.607411 0.304897 -0.087899 0.220972 -0.178234 -0.315066 0.151304 -0.433927 0.471786 0.348937 0.318395 0.035335 -0.385161 0.256940 -0.270556 0.037457 0.209033 -0.716908 -0.097141 0.373654 0.232210 0.022494 0.011777 0.329623 -0.063691 -0.002344 -0.426015 -0.437592 -0.259656 0.466066 0.318382 -0.187768 0.153748 0.337809 0.545389 -0.525733 -0.423221 0.178826 -0.462655 -0.308818 -0.186198 0.001201 -0.410663 0.145534 0.444861 -0.226269 0.433040 0.144746 0.090100 -0.112215 -0.003507 0.038833 0.403825 -0.309172 -0.020434 -0.212939 0.652590 0.599908 -0.118406 -0.200391 0.182066 -0.244389 0.321610 -0.216241 0.145225 0.087661 0.220477 -0.106658 -0.207636 -0.640366 0.007731 0.479070 0.223845 -0.154251 -0.093682 -0.319250 -0.252326 0.195741 0.150702 0.222878 -0.181042 0.201918 0.071293 -0.163537 -0.000872 -0.407470 -0.427441 0.660150 0.146739
B股 0.068388 0.054698 -0.203843 -0.170865 0.041303 -0.257718 -0.196234 -0.377531 0.260486 0.243796 0.271524 -0.767398 0.223007 -0.012525 -0.052465 -0.167921 -0.158548 0.115008 -0.368759 0.435758 0.093938 -0.124308 0.266179 -0.358437 0.100279 -0.165671 0.033300 0.287591 -0.766672 0.087222 0.471006 0.057681 -0.013403 -0.046684 0.103190 -0.200578 -0.237356 -0.459435 -0.497352 -0.308567 0.507254 0.342787 -0.025122 0.107237 0.418937 0.378733 -0.151377 -0.470334 0.051556 -0.262376 -0.244789 0.023121 0.217497 -0.268029 0.136344 0.394240 -0.107856 0.414299 0.362462 0.363365 -0.129817 0.121697 0.289081 0.375858 0.130221 -0.125975 -0.292714 0.594416 0.513316 0.095990 0.171187 0.057627 -0.326985 0.039481 -0.315070 -0.076337 -0.052999 0.234743 0.022443 -0.247342 -0.801778 0.008449 0.317596 0.258437 -0.127322 0.243830 -0.210484 -0.434008 0.071030 0.282132 0.340722 0.000789 0.133006 0.077146 -0.252356 -0.127289 -0.363622 -0.384623 0.650005 0.144445
钱 0.042098 0.132726 -0.246407 -0.240767 -0.057467 -0.168789 -0.262015 -0.394735 0.243671 0.155845 0.176189 -0.690253 0.145109 -0.015089 -0.088385 -0.135757 -0.060789 0.151596 -0.269910 0.414466 0.029086 -0.176145 0.160455 -0.249279 0.076012 -0.118746 0.000080 0.278564 -0.682200 0.075983 0.411030 0.113857 -0.130281 -0.102177 0.142394 -0.177493 -0.132829 -0.391448 -0.462740 -0.265848 0.372658 0.216994 0.033445 0.066549 0.354608 0.291543 -0.027312 -0.459481 0.065637 -0.203135 -0.211010 -0.001510 0.235692 -0.134790 0.154432 0.320967 -0.276454 0.351770 0.369248 0.373006 -0.119251 0.078337 0.280955 0.372215 0.220442 -0.156926 -0.248075 0.578880 0.369566 0.083654 0.137060 0.031444 -0.265490 -0.065685 -0.187452 -0.082241 -0.098924 0.271372 0.003298 -0.169850 -0.777209 -0.001717 0.262273 0.159549 -0.105043 0.205634 -0.126039 -0.452798 0.002576 0.305699 0.269850 0.124803 0.190202 -0.000962 -0.246107 -0.189859 -0.297313 -0.308939 0.583471 0.128666
深交所 0.010202 0.035642 -0.146144 -0.051636 0.128671 -0.300764 -0.195650 -0.319618 0.318918 0.337937 0.129439 -0.535811 0.246696 -0.060770 -0.006669 -0.248466 -0.120463 0.074965 -0.364989 0.425398 0.239415 0.015791 0.209570 -0.219863 0.046848 -0.236021 0.132664 0.289028 -0.704521 -0.177545 0.413669 -0.007083 -0.073192 0.102261 0.233826 -0.203630 -0.316398 -0.622665 -0.324739 -0.276461 0.441664 0.219774 -0.027724 -0.034084 0.437899 0.429194 -0.247768 -0.487289 0.105161 -0.179319 -0.124353 0.051688 0.269068 -0.336612 0.164928 0.219458 -0.127563 0.221013 0.353019 0.230001 -0.217919 0.126167 0.126796 0.409695 -0.056893 -0.145310 -0.255651 0.574675 0.532693 -0.067314 0.109354 0.131314 -0.241876 0.067055 -0.383491 -0.206458 0.050374 0.313966 0.037530 -0.281718 -0.696029 0.064709 0.259343 0.136928 -0.024882 0.181136 -0.295219 -0.276783 -0.031790 0.201431 0.333022 -0.011719 0.143483 -0.009278 -0.151936 -0.197147 -0.421438 -0.294473 0.545268 0.033640
原因 0.075261 0.197960 -0.247058 -0.214318 -0.045353 -0.071488 -0.289691 -0.241378 0.101691 -0.067772 0.081373 -0.497365 -0.026972 0.088684 -0.114249 0.017229 0.028949 0.150009 -0.064859 0.244355 -0.160916 -0.070438 0.088356 -0.179869 0.084487 -0.033631 -0.114234 0.154044 -0.443745 0.176877 0.172740 0.135074 -0.165527 -0.141829 0.068137 -0.104413 0.038929 0.012440 -0.288474 -0.108542 0.154691 0.084371 0.024029 0.179651 0.145262 0.178108 0.027706 -0.348786 0.091824 -0.211623 -0.127130 -0.017496 0.193909 0.075909 0.100820 0.291116 -0.303120 0.192445 0.189955 0.345556 0.025454 -0.019405 0.267205 0.354849 0.319875 -0.128086 -0.153777 0.433075 0.125615 0.076704 0.054381 -0.060737 -0.134652 -0.067255 0.067883 0.009838 -0.068129 0.155038 -0.140830 -0.020169 -0.498637 -0.060542 0.225389 0.074944 -0.187315 0.166563 0.102168 -0.414252 0.016428 0.181912 0.146816 0.271555 0.232364 0.040174 -0.165413 -0.108315 -0.164247 -0.230172 0.356941 0.212844
费用 0.032837 0.025861 -0.075798 -0.137305 -0.096960 -0.065874 -0.118207 -0.263020 0.105505 0.143720 0.260465 -0.521315 0.110217 0.003225 -0.103120 -0.022420 -0.117389 0.034594 -0.192685 0.249707 -0.111997 -0.332688 0.218911 -0.212495 -0.072422 -0.025725 -0.026863 0.236313 -0.388549 0.141440 0.358885 0.013338 0.094593 -0.047960 -0.060417 -0.114700 -0.189170 -0.146996 -0.430485 -0.178339 0.322145 0.241297 0.072580 0.124550 0.191435 0.044108 0.128682 -0.214662 -0.025122 -0.165559 -0.195481 0.050928 0.101311 -0.036418 0.083039 0.244822 -0.020467 0.363175 0.223216 0.243355 -0.049102 0.127068 0.223713 0.105079 0.214498 -0.096829 -0.191163 0.277267 0.199058 0.174261 0.187042 -0.036416 -0.228953 -0.046883 -0.212750 0.002275 -0.124360 0.068996 0.083362 -0.094573 -0.520081 0.040573 0.052176 0.231516 -0.133306 0.205995 -0.073512 -0.337443 0.027866 0.261223 0.123869 0.027497 0.000392 0.087632 -0.298372 -0.103152 -0.087364 -0.171347 0.338600 0.106534
港股 -0.080114 -0.028727 -0.172936 -0.265289 -0.237578 -0.194511 0.069149 -0.448546 0.266204 0.201255 0.319776 -0.603229 0.373312 -0.059586 -0.133212 -0.242377 -0.113313 0.226428 -0.430314 0.492254 0.219181 -0.522828 0.242865 -0.163350 -0.081690 -0.002122 0.114388 0.235353 -0.468268 0.141585 0.523245 -0.122624 0.026782 -0.084498 -0.155941 -0.230845 -0.379921 -0.795367 -0.575205 -0.435275 0.557880 0.381366 0.026691 -0.217253 0.446946 0.168325 0.216607 -0.296535 -0.158573 0.093266 -0.155918 0.021865 0.129517 -0.141919 -0.072581 0.114908 0.135255 0.492045 0.539367 0.253470 -0.204057 0.240364 0.222661 -0.066167 0.190297 -0.107989 -0.136986 0.283182 0.562120 0.411572 0.311961 0.208653 -0.407495 -0.179893 -0.460335 -0.113290 -0.243299 0.238085 0.327690 -0.308844 -0.765257 0.045779 -0.011615 0.199982 0.065357 0.180421 -0.389778 -0.262236 -0.151042 0.431220 0.339318 -0.197046 -0.082039 -0.053166 -0.249864 -0.071893 -0.131095 -0.122459 0.612849 -0.101722
登录 -0.011605 -0.132730 -0.262767 -0.131797 0.112611 -0.178579 0.180230 -0.290433 0.216969 0.240957 0.345662 -0.494943 0.337561 0.022955 -0.093194 -0.214692 -0.198005 0.199182 -0.279614 0.249876 0.253171 -0.168873 0.311473 -0.228737 0.164634 -0.046186 0.086615 0.061713 -0.542519 0.228254 0.344831 -0.063241 0.063970 -0.100583 -0.196782 -0.170765 -0.268849 -0.595325 -0.319161 -0.304579 0.431487 0.360505 -0.079777 -0.067268 0.407932 0.325528 -0.172222 -0.149998 -0.093166 -0.065529 -0.221412 0.039671 0.031155 -0.327333 -0.067848 0.210963 0.234887 0.406940 0.277488 0.221306 -0.119179 0.124442 0.201111 0.036883 0.051901 0.102473 -0.071974 0.275302 0.481909 0.331043 0.243722 0.191933 -0.318124 -0.006893 -0.363035 -0.008948 -0.080809 0.095535 0.156437 -0.298463 -0.422793 -0.139775 0.197403 0.179371 0.157964 0.160411 -0.353705 -0.131786 0.046407 0.284711 0.410573 -0.256803 -0.118733 0.095995 -0.096325 0.078461 -0.138307 -0.264893 0.588696 -0.025376
注销 -0.050455 0.079734 -0.220220 -0.248456 0.028020 -0.174085 -0.042347 -0.186245 0.407264 0.116486 0.025839 -0.271911 0.207440 0.082216 -0.181742 -0.194215 0.055702 0.252049 -0.102726 0.219072 0.287847 -0.022454 0.185357 -0.091506 -0.001634 -0.174390 0.074665 0.076333 -0.335356 -0.142805 0.261377 0.051879 -0.134085 -0.022405 0.136415 -0.254028 -0.262379 -0.542825 -0.188065 -0.191355 0.175552 0.089823 0.075292 -0.179298 0.291743 0.310066 -0.046022 -0.235066 0.077703 -0.053938 0.008400 -0.006779 0.282234 -0.190296 0.175577 0.047689 -0.051019 0.157707 0.187267 0.151430 -0.172892 0.081718 -0.020924 0.266873 0.021312 -0.067803 -0.057335 0.332411 0.272476 -0.021651 0.079362 0.129177 -0.151694 -0.235594 -0.216097 -0.114409 0.045201 0.361315 0.046537 -0.149979 -0.351739 -0.002374 0.082626 -0.114717 0.154416 -0.002763 -0.209072 -0.037678 -0.237957 0.149671 0.160524 0.130640 0.090660 -0.125109 -0.013587 -0.157208 -0.139344 -0.081291 0.427375 -0.130044
上交所 0.094892 -0.033474 -0.144012 -0.059228 0.120086 -0.330152 -0.070739 -0.368055 0.401934 0.429456 0.185768 -0.673532 0.395580 -0.086860 -0.022859 -0.288599 -0.215393 0.120280 -0.491176 0.510945 0.364812 -0.020634 0.272038 -0.286640 0.088584 -0.268090 0.153603 0.297824 -0.792016 -0.146228 0.542868 0.009729 0.008316 0.081103 0.221089 -0.230672 -0.371356 -0.819600 -0.466955 -0.389774 0.562047 0.341755 -0.044706 -0.070978 0.558984 0.496768 -0.282716 -0.497121 0.069483 -0.235853 -0.212134 0.011583 0.217739 -0.433555 0.168916 0.272856 -0.046712 0.387745 0.385094 0.208599 -0.242464 0.185860 0.123146 0.344428 -0.154805 -0.118431 -0.258240 0.590625 0.689549 -0.003228 0.111430 0.190567 -0.339847 0.097613 -0.500629 -0.157677 0.019663 0.343225 0.093495 -0.372780 -0.793373 0.056869 0.269244 0.209243 0.019805 0.128281 -0.439178 -0.271425 -0.011276 0.278491 0.361816 -0.141270 0.065338 0.001238 -0.189452 -0.153965 -0.435208 -0.344589 0.688314 -0.013445
停牌 -0.055501 0.072945 -0.321762 -0.387058 -0.074969 -0.334687 -0.087860 -0.551748 0.505207 0.294833 0.309225 -0.854248 0.459464 -0.005762 -0.237645 -0.321550 -0.093062 0.286944 -0.485818 0.599613 0.310815 -0.398406 0.384606 -0.298098 -0.067782 -0.147776 0.127561 0.353015 -0.804146 -0.007237 0.681221 -0.053885 -0.064518 -0.007487 0.023421 -0.381941 -0.543714 -0.996949 -0.643943 -0.495413 0.634736 0.411750 0.073935 -0.209837 0.637199 0.454342 0.066304 -0.538084 -0.016910 -0.075648 -0.178877 0.059462 0.365830 -0.269250 0.103601 0.247796 0.013027 0.554289 0.638632 0.420285 -0.281653 0.261860 0.237855 0.269911 0.185815 -0.183263 -0.263906 0.603032 0.675343 0.273412 0.323722 0.207980 -0.481066 -0.203248 -0.576298 -0.244017 -0.120343 0.444091 0.242488 -0.427208 -0.999927 0.030831 0.107840 0.150433 0.054568 0.251048 -0.450715 -0.400039 -0.229703 0.457085 0.429539 -0.019506 0.063333 -0.056776 -0.262265 -0.215393 -0.303704 -0.235558 0.838587 -0.093374
转让 -0.015945 0.099277 -0.167616 -0.140698 -0.108134 -0.185251 -0.233274 -0.397896 0.092528 0.149188 0.274690 -0.692333 0.071609 -0.023000 -0.046350 -0.053994 -0.100281 0.062463 -0.255744 0.387301 -0.123899 -0.303303 0.181244 -0.266118 0.047379 -0.044442 -0.014701 0.306051 -0.559512 0.185463 0.358984 -0.041110 0.009793 -0.103060 -0.003248 -0.190059 -0.082520 -0.191953 -0.511713 -0.283371 0.492869 0.296826 0.015233 0.149584 0.291474 0.157270 0.078318 -0.392902 -0.034157 -0.165291 -0.242150 0.010017 0.162883 -0.113514 0.065821 0.312431 -0.149503 0.316196 0.318165 0.357068 -0.039438 0.091713 0.386057 0.236249 0.341498 -0.150956 -0.270629 0.484164 0.360484 0.207605 0.202203 -0.031811 -0.272199 0.001518 -0.213181 -0.079133 -0.183432 0.125173 0.045112 -0.079958 -0.745941 0.027207 0.235658 0.259881 -0.256761 0.326399 -0.066507 -0.442860 0.070750 0.315091 0.281069 0.078681 0.148525 0.010849 -0.349449 -0.141374 -0.295267 -0.294979 0.449909 0.150547
买 0.047030 0.015001 -0.061214 0.002937 0.035804 -0.210244 -0.167542 -0.290399 0.211765 0.308700 0.098914 -0.534074 0.193740 -0.125413 0.035850 -0.166801 -0.148324 -0.040501 -0.391479 0.365541 0.144403 -0.037199 0.122418 -0.201717 0.070758 -0.177672 0.109033 0.269403 -0.586543 -0.120707 0.407254 0.028293 -0.041303 0.028643 0.231217 -0.110128 -0.193798 -0.455563 -0.348269 -0.238596 0.418454 0.196359 -0.049646 0.049213 0.336291 0.249004 -0.131782 -0.413173 0.073528 -0.166048 -0.173087 -0.033748 0.134427 -0.252857 0.153401 0.246714 -0.165684 0.251113 0.282614 0.184471 -0.133910 0.141206 0.183002 0.244246 -0.077000 -0.166250 -0.251151 0.410320 0.436646 -0.043435 0.095575 0.029740 -0.209863 0.152531 -0.312268 -0.145814 -0.018517 0.219252 0.033295 -0.214389 -0.664317 0.116370 0.221595 0.221007 -0.107803 0.156107 -0.236145 -0.307378 0.059316 0.172702 0.230742 -0.047631 0.091730 -0.049231 -0.223482 -0.168768 -0.344504 -0.253013 0.392922 0.072907
债券 -0.042323 0.136639 -0.212854 -0.199695 -0.055384 -0.229385 -0.323745 -0.435334 0.188234 0.190325 0.268392 -0.738501 0.092460 -0.003238 -0.080569 -0.130220 -0.086926 0.089561 -0.286157 0.442771 -0.065968 -0.296751 0.221429 -0.283514 0.014403 -0.099131 0.010962 0.363998 -0.724572 0.066008 0.429458 -0.007389 -0.072394 -0.043136 0.084158 -0.239034 -0.183292 -0.340231 -0.509502 -0.289186 0.503139 0.251980 0.033607 0.113873 0.350484 0.267654 0.037625 -0.485746 0.048981 -0.182157 -0.226219 0.048902 0.306751 -0.147354 0.139170 0.316182 -0.233220 0.310347 0.400473 0.431326 -0.119309 0.114786 0.383362 0.387802 0.338252 -0.193218 -0.313201 0.619256 0.398043 0.122884 0.221971 -0.011175 -0.294910 -0.059031 -0.280123 -0.142413 -0.120364 0.219096 0.040509 -0.152952 -0.847461 0.040132 0.250117 0.225308 -0.221292 0.352242 -0.115493 -0.505124 0.003722 0.332635 0.319705 0.135493 0.211787 -0.002955 -0.337852 -0.224139 -0.361325 -0.305151 0.567743 0.145123
申报 0.004580 0.002679 -0.174403 -0.173513 -0.048313 -0.200604 -0.083722 -0.377854 0.258343 0.261061 0.263466 -0.651188 0.274743 -0.032767 -0.099575 -0.174735 -0.137465 0.127295 -0.339560 0.402059 0.118855 -0.282524 0.255149 -0.257539 0.014699 -0.099083 0.068090 0.261504 -0.606228 0.099154 0.483365 -0.007477 0.030296 -0.042073 -0.005666 -0.204689 -0.299591 -0.542484 -0.501840 -0.336574 0.476775 0.329121 0.021641 -0.022371 0.406485 0.281130 -0.001224 -0.347346 -0.022644 -0.139519 -0.199453 0.017540 0.174678 -0.216947 0.074572 0.251004 0.006117 0.422025 0.373260 0.281219 -0.142442 0.165704 0.240459 0.195510 0.139377 -0.100132 -0.218133 0.448522 0.460342 0.190747 0.199693 0.100811 -0.342363 -0.055721 -0.364986 -0.079132 -0.095806 0.222163 0.137862 -0.247111 -0.724019 0.020565 0.165382 0.217487 -0.047973 0.196574 -0.264471 -0.308854 -0.037694 0.318512 0.284374 -0.061863 0.029724 0.026723 -0.244010 -0.114295 -0.250929 -0.240042 0.568152 0.046095
过期 0.173348 0.055912 -0.059667 -0.081613 -0.171474 0.040209 -0.138538 -0.267391 -0.012447 0.056784 0.171004 -0.696479 -0.063025 -0.014813 0.145786 0.105738 -0.222957 0.109547 -0.154288 0.328851 -0.255713 -0.062605 -0.015209 -0.369000 0.216681 0.033034 -0.175388 0.239112 -0.570961 0.258295 0.249855 0.256230 -0.003229 -0.206901 0.033574 -0.021703 0.283094 0.250753 -0.511965 -0.098849 0.342292 0.206757 -0.092032 0.419883 0.036071 0.199231 -0.088463 -0.266258 0.147392 -0.471016 -0.392725 -0.172722 0.010533 -0.044212 0.079192 0.532065 -0.428015 0.476140 0.093393 0.347223 0.110480 -0.120396 0.332074 0.347741 0.268096 -0.040361 -0.241688 0.633018 0.193263 0.087869 -0.127013 -0.053165 -0.199591 0.128830 0.141336 0.297483 -0.132561 -0.038773 -0.157429 0.118469 -0.634634 -0.067908 0.479528 0.258950 -0.421932 0.122564 0.069352 -0.530408 0.296976 0.239679 0.040080 0.109975 0.321758 0.116912 -0.342898 0.002364 -0.221192 -0.396138 0.527384 0.381353
深市 -0.071226 0.009388 -0.229017 -0.269634 -0.081060 -0.234351 0.006622 -0.388714 0.356876 0.212023 0.251480 -0.558133 0.361635 -0.011147 -0.166183 -0.265351 -0.080135 0.245153 -0.369443 0.449286 0.294900 -0.335814 0.270555 -0.183564 -0.044854 -0.090240 0.122606 0.206566 -0.529650 0.030588 0.491470 -0.078843 -0.048023 -0.033605 -0.046933 -0.271154 -0.406346 -0.818822 -0.442372 -0.380103 0.475103 0.305023 0.039282 -0.228674 0.468029 0.306105 0.067806 -0.340515 -0.059900 0.036848 -0.100516 0.043441 0.223993 -0.212535 0.015942 0.123720 0.103088 0.409410 0.490175 0.258456 -0.228102 0.216672 0.152103 0.104684 0.110816 -0.103320 -0.156069 0.364191 0.517619 0.261070 0.279337 0.209896 -0.365663 -0.180330 -0.447980 -0.153834 -0.118089 0.325250 0.231971 -0.342767 -0.696386 0.021789 0.057456 0.099378 0.131381 0.162185 -0.374382 -0.222730 -0.184261 0.345604 0.353864 -0.104393 -0.027151 -0.059577 -0.159525 -0.126618 -0.198283 -0.146889 0.624589 -0.108708
操作 0.109730 -0.011085 -0.110112 -0.172178 -0.142648 -0.069065 0.043176 -0.289444 0.222635 0.162491 0.240847 -0.622852 0.211391 -0.012630 -0.021553 -0.099213 -0.175316 0.180564 -0.287030 0.383816 0.050947 -0.266962 0.171035 -0.246339 0.060736 0.036283 0.015948 0.177447 -0.518457 0.185565 0.411471 0.083784 0.025740 -0.128749 -0.105018 -0.146565 -0.148201 -0.372260 -0.453609 -0.233531 0.369867 0.310381 -0.001815 0.033275 0.295590 0.204117 0.003821 -0.208544 0.013229 -0.179344 -0.270210 -0.016177 0.040296 -0.095587 0.007980 0.281360 -0.043446 0.522769 0.272212 0.253211 -0.066868 0.079266 0.214852 0.107455 0.150067 -0.062216 -0.176227 0.361156 0.380050 0.216338 0.140900 0.096809 -0.313444 -0.045782 -0.212375 0.098919 -0.162627 0.104793 0.117016 -0.176851 -0.631597 -0.012643 0.171760 0.254642 -0.068622 0.115150 -0.177515 -0.356908 0.062486 0.327936 0.163227 -0.046445 0.007245 0.058570 -0.270588 -0.013648 -0.086780 -0.227551 0.571663 0.071640
手续费 0.131231 -0.075752 -0.195621 -0.332581 -0.173260 -0.075046 0.139963 -0.370528 0.341282 0.230312 0.404652 -0.762751 0.435313 0.031442 -0.212790 -0.156075 -0.251125 0.259945 -0.377791 0.415468 0.121859 -0.488984 0.367465 -0.311556 -0.010083 0.000856 0.024028 0.195608 -0.560156 0.299999 0.612519 0.062505 0.147731 -0.183236 -0.233092 -0.209798 -0.376288 -0.632227 -0.660520 -0.383173 0.458419 0.453078 0.083490 -0.053566 0.454134 0.210277 0.126103 -0.193225 -0.105308 -0.182483 -0.303062 0.007799 0.033757 -0.128924 0.016271 0.328046 0.186854 0.792537 0.378733 0.309999 -0.130144 0.227525 0.233259 -0.019771 0.160465 -0.026514 -0.151355 0.324627 0.457880 0.405800 0.263817 0.152576 -0.448487 -0.153824 -0.392894 0.116938 -0.194374 0.179017 0.238280 -0.326533 -0.745293 -0.060951 0.058609 0.311484 0.066794 0.093128 -0.332379 -0.357976 -0.043916 0.460645 0.226678 -0.169475 -0.179787 0.136011 -0.298141 -0.009850 0.010653 -0.236661 0.710126 -0.004349
银证 0.202656 0.104974 -0.177726 -0.133245 -0.011380 -0.059758 -0.114712 -0.183801 0.215779 0.047111 0.053046 -0.493625 0.144102 0.079670 -0.063164 -0.055154 -0.093087 0.185940 -0.169275 0.274098 0.016762 0.036705 0.103467 -0.223947 0.123407 -0.077953 -0.069916 0.118766 -0.445666 0.124594 0.250928 0.194186 -0.086427 -0.138538 0.069462 -0.096654 -0.024537 -0.126049 -0.308840 -0.126723 0.195564 0.146133 -0.027572 0.178417 0.200704 0.233180 -0.058718 -0.281727 0.140815 -0.314043 -0.166240 -0.061822 0.081680 -0.020612 0.130947 0.315911 -0.210190 0.335370 0.114186 0.223348 -0.026737 -0.007040 0.170364 0.294723 0.089470 -0.083668 -0.118008 0.385157 0.203207 0.019618 -0.021037 -0.011897 -0.167631 0.006825 -0.012049 0.124774 -0.031949 0.166214 -0.124511 -0.089560 -0.462628 -0.050855 0.233003 0.158516 -0.115867 0.021078 -0.013929 -0.344145 0.042851 0.171550 0.096679 0.152100 0.126962 0.060301 -0.173808 -0.044729 -0.144615 -0.235026 0.440513 0.129899
中 -0.024253 0.009991 -0.299230 -0.257063 0.039773 -0.332889 -0.029744 -0.436816 0.496456 0.297119 0.213266 -0.651982 0.445263 -0.019203 -0.166341 -0.325084 -0.095060 0.282636 -0.435710 0.540640 0.434573 -0.154751 0.297082 -0.246683 0.013669 -0.189465 0.166054 0.241699 -0.734218 -0.049549 0.574303 -0.027926 -0.088135 -0.013300 0.095679 -0.295854 -0.491829 -0.963897 -0.468577 -0.440508 0.516895 0.360769 0.013488 -0.218530 0.598360 0.510331 -0.111046 -0.496554 0.005363 -0.070352 -0.109279 0.042138 0.277852 -0.329282 0.092605 0.204744 0.044356 0.443549 0.527602 0.293825 -0.274228 0.215106 0.112211 0.266155 0.007429 -0.146391 -0.196986 0.538656 0.659089 0.175504 0.241919 0.262278 -0.415125 -0.119186 -0.516717 -0.180295 -0.020234 0.455037 0.174587 -0.423409 -0.822131 0.006663 0.157671 0.086576 0.134602 0.141982 -0.435224 -0.245505 -0.197173 0.354128 0.426944 -0.085374 0.027223 -0.067468 -0.112805 -0.149838 -0.299819 -0.239307 0.765836 -0.110532
帐号 0.021660 -0.128987 -0.212264 -0.141371 0.034235 -0.146896 0.161247 -0.283343 0.198461 0.249649 0.330495 -0.520634 0.311956 0.006168 -0.080149 -0.179873 -0.209522 0.172465 -0.287595 0.273669 0.198681 -0.213244 0.279605 -0.226474 0.136185 -0.021694 0.064891 0.091754 -0.520173 0.224639 0.375564 -0.030443 0.088527 -0.113725 -0.189037 -0.163728 -0.256290 -0.553037 -0.378406 -0.306509 0.435720 0.343336 -0.051501 -0.048100 0.383014 0.272167 -0.116283 -0.150450 -0.084373 -0.100371 -0.234842 0.007827 0.014400 -0.275704 -0.044194 0.215820 0.197770 0.460268 0.265694 0.220849 -0.096459 0.127511 0.200769 0.015791 0.067050 0.071756 -0.098344 0.286811 0.461992 0.310690 0.207780 0.183988 -0.325974 -0.017363 -0.342754 0.038693 -0.097863 0.096484 0.177175 -0.264081 -0.486564 -0.113080 0.185861 0.218799 0.108496 0.152211 -0.324801 -0.165682 0.047427 0.306162 0.340926 -0.224801 -0.119997 0.087241 -0.146542 0.062750 -0.108713 -0.244072 0.570381 -0.004148
缴款 -0.064424 0.039681 -0.248828 -0.264243 0.018907 -0.185416 -0.052460 -0.285420 0.328784 0.127335 0.150824 -0.403375 0.273386 0.037224 -0.180222 -0.187759 0.011636 0.241261 -0.207630 0.307592 0.241305 -0.151331 0.225108 -0.151980 -0.028218 -0.104187 0.083007 0.118040 -0.415629 0.017952 0.343383 -0.009669 -0.087864 -0.029244 0.031902 -0.207194 -0.324623 -0.593092 -0.280108 -0.265617 0.275018 0.205562 0.056124 -0.164451 0.361455 0.316702 -0.006367 -0.299802 -0.006019 -0.011976 -0.028489 0.044225 0.227428 -0.157196 0.063757 0.104695 0.049020 0.276479 0.352850 0.237162 -0.179285 0.140679 0.069998 0.190798 0.089664 -0.091055 -0.097960 0.318182 0.334371 0.158732 0.203234 0.154199 -0.260790 -0.184280 -0.305673 -0.132948 -0.018022 0.316397 0.105143 -0.249382 -0.483706 -0.029550 0.057846 -0.014154 0.133085 0.098320 -0.245792 -0.146032 -0.201838 0.225483 0.270090 0.015582 0.014739 -0.038104 -0.047641 -0.119111 -0.142560 -0.114386 0.488297 -0.077133
代码 -0.012334 0.042297 -0.235513 -0.309332 -0.080180 -0.200357 -0.102112 -0.441775 0.290411 0.187110 0.335547 -0.730097 0.289720 0.004388 -0.181144 -0.169009 -0.102530 0.186256 -0.345243 0.438560 0.102929 -0.379936 0.306227 -0.284204 -0.011350 -0.058009 0.048238 0.270342 -0.641269 0.156994 0.530602 0.001182 -0.009259 -0.091170 -0.082018 -0.235465 -0.347733 -0.605281 -0.543561 -0.366487 0.479361 0.354863 0.057262 -0.059016 0.444829 0.276396 0.073447 -0.372390 -0.041176 -0.092885 -0.213486 0.060087 0.221552 -0.165129 0.060587 0.285948 0.016932 0.497082 0.462916 0.388881 -0.164094 0.191631 0.282480 0.177621 0.240899 -0.110965 -0.232540 0.452815 0.451572 0.285396 0.291502 0.108307 -0.395949 -0.142502 -0.369016 -0.089460 -0.142471 0.256764 0.156711 -0.271518 -0.776776 -0.007919 0.118511 0.201559 0.003299 0.263415 -0.277754 -0.376668 -0.072238 0.383834 0.319225 -0.029066 0.016007 0.032498 -0.254762 -0.124316 -0.195151 -0.251986 0.670362 0.049498
开 0.129155 -0.124082 0.015807 0.134070 0.110326 -0.220321 0.124551 -0.153384 0.354344 0.471150 0.032676 -0.369920 0.306618 -0.138894 0.192657 -0.278747 -0.276617 0.067540 -0.426259 0.414832 0.428098 0.219440 0.100863 -0.188628 0.175223 -0.217325 0.170287 0.173403 -0.607158 -0.272704 0.392311 0.097480 -0.006295 0.101962 0.277685 -0.177559 -0.181937 -0.667710 -0.233926 -0.210701 0.421772 0.227657 -0.152934 -0.063141 0.356355 0.439960 -0.472452 -0.273739 0.161843 -0.256654 -0.200393 -0.120208 0.038018 -0.460893 0.137358 0.198281 -0.090154 0.299256 0.167589 -0.004935 -0.177149 0.069411 -0.062022 0.298394 -0.394826 -0.038189 -0.183750 0.476854 0.631703 -0.192771 -0.085527 0.265478 -0.187268 0.195264 -0.368986 -0.029496 0.083981 0.245333 0.045953 -0.259460 -0.560096 0.118839 0.341395 0.214921 0.019068 -0.049292 -0.402539 -0.113150 0.099756 0.119599 0.212650 -0.179349 0.080924 -0.063254 -0.108519 -0.055621 -0.349154 -0.262255 0.519198 -0.041161
首日 -0.186162 0.069228 -0.208264 -0.212350 -0.052603 -0.209908 -0.069310 -0.335865 0.276689 0.127661 0.175633 -0.398935 0.187753 0.005831 -0.154149 -0.178734 0.022337 0.155228 -0.228275 0.286428 0.157013 -0.276492 0.209357 -0.107977 -0.078675 -0.022017 0.091714 0.188416 -0.370048 -0.063195 0.303803 -0.174077 -0.087940 0.030407 -0.019180 -0.273979 -0.326254 -0.524244 -0.290442 -0.259503 0.376536 0.174132 0.045600 -0.152595 0.329418 0.214338 0.131006 -0.282385 -0.027803 0.090732 -0.032292 0.055284 0.259107 -0.122734 0.008681 0.055271 0.039265 0.166462 0.384478 0.246510 -0.159434 0.141108 0.156258 0.109780 0.204974 -0.118201 -0.134216 0.292381 0.319562 0.180892 0.232408 0.079944 -0.234922 -0.144817 -0.368372 -0.232086 -0.083178 0.226390 0.148210 -0.224958 -0.484687 0.027060 -0.016993 0.005879 0.020853 0.229173 -0.225885 -0.162714 -0.182175 0.223495 0.271434 0.030055 0.076454 -0.151090 -0.124346 -0.159751 -0.194670 -0.060588 0.376191 -0.117749
收取 0.157574 -0.189937 0.028519 -0.062614 -0.140836 0.039680 0.279717 -0.167347 0.196473 0.252221 0.264998 -0.443099 0.327503 -0.054109 -0.061379 -0.063527 -0.299746 0.077126 -0.296753 0.208153 0.104591 -0.330310 0.210363 -0.185255 -0.006650 0.010224 0.012667 0.099163 -0.282886 0.168513 0.442642 0.073435 0.227619 -0.121374 -0.177999 -0.059916 -0.208444 -0.369987 -0.449640 -0.233085 0.305328 0.341305 0.008663 0.005116 0.229613 0.035296 0.031572 0.035801 -0.072283 -0.179923 -0.281405 -0.072898 -0.151901 -0.138304 0.007637 0.250054 0.186766 0.607247 0.103314 0.040288 -0.045154 0.156955 0.063011 -0.177865 -0.078578 0.038907 -0.062339 0.074417 0.303623 0.234400 0.093068 0.122427 -0.257192 0.026398 -0.281902 0.212011 -0.130953 0.009063 0.200047 -0.177079 -0.401943 0.021468 -0.004912 0.302670 0.071769 -0.052785 -0.294779 -0.137071 0.076909 0.279355 0.020739 -0.257221 -0.226578 0.107522 -0.229847 0.071013 0.081735 -0.123484 0.379139 -0.012827
深港 0.095049 -0.111484 -0.064286 -0.208665 -0.299316 -0.125901 0.188957 -0.443847 0.315405 0.316145 0.333511 -0.747187 0.496036 -0.106957 -0.089200 -0.227607 -0.272452 0.218929 -0.541652 0.557432 0.257006 -0.541012 0.258346 -0.243517 -0.051541 0.012209 0.109370 0.258006 -0.551234 0.193023 0.673741 -0.000668 0.129703 -0.114922 -0.177048 -0.188192 -0.393019 -0.842335 -0.727966 -0.473630 0.581990 0.493524 0.021098 -0.173076 0.500650 0.181480 0.170449 -0.255604 -0.115822 -0.079285 -0.297171 -0.054711 0.005634 -0.174361 -0.051824 0.229222 0.158690 0.737470 0.496115 0.191912 -0.182016 0.261590 0.194873 -0.135984 0.041096 -0.084228 -0.158231 0.295853 0.636903 0.398575 0.234946 0.237064 -0.495272 -0.080729 -0.496057 0.042117 -0.250159 0.202166 0.358243 -0.345720 -0.857689 0.071239 -0.006816 0.338013 0.061360 0.067846 -0.466324 -0.303773 -0.057720 0.496764 0.236851 -0.308423 -0.178042 0.014505 -0.334599 -0.017821 -0.087401 -0.168714 0.713228 -0.085348
市值 -0.062196 0.003066 -0.229053 -0.210071 0.070030 -0.279021 -0.039256 -0.308574 0.295573 0.147419 0.183133 -0.454227 0.298269 -0.010345 -0.128904 -0.221451 -0.027339 0.155087 -0.332196 0.350484 0.281332 -0.126378 0.233666 -0.179164 0.012242 -0.110964 0.140386 0.181841 -0.466422 0.013919 0.353236 -0.105761 -0.054121 -0.001107 0.033996 -0.200689 -0.338903 -0.669839 -0.279836 -0.319583 0.381431 0.291370 0.002586 -0.179377 0.449321 0.312544 -0.073729 -0.366431 -0.076662 0.058906 -0.039906 0.100079 0.183859 -0.212126 -0.035306 0.110100 0.108906 0.235526 0.418313 0.227169 -0.189438 0.176180 0.134624 0.119882 0.057042 -0.117135 -0.157730 0.274593 0.502856 0.215039 0.265688 0.166582 -0.277880 -0.042623 -0.377361 -0.200159 -0.037270 0.288697 0.139176 -0.328143 -0.542038 -0.022792 0.075021 0.056365 0.105487 0.166488 -0.308465 -0.152090 -0.120524 0.243823 0.366884 -0.088161 -0.008237 -0.019882 -0.038166 -0.077504 -0.195060 -0.174406 0.473819 -0.059742
深圳 -0.122939 0.103396 -0.308747 -0.266391 0.079194 -0.287999 -0.176250 -0.347260 0.352607 0.166469 0.172206 -0.492257 0.243843 0.045641 -0.152286 -0.262351 0.026873 0.219019 -0.264971 0.384533 0.255849 -0.100671 0.257974 -0.182278 0.001603 -0.178008 0.108288 0.213136 -0.568320 -0.071478 0.363391 -0.067913 -0.159103 0.010058 0.125621 -0.283088 -0.340990 -0.648422 -0.286451 -0.297556 0.401631 0.205428 0.011670 -0.122404 0.423097 0.400149 -0.062966 -0.448813 0.025576 -0.014916 -0.025062 0.066728 0.345545 -0.220304 0.097733 0.138485 -0.055573 0.183472 0.415561 0.294054 -0.216801 0.140479 0.157671 0.354189 0.150039 -0.136952 -0.186685 0.457372 0.431480 0.107503 0.234897 0.111754 -0.260576 -0.145302 -0.351285 -0.237515 0.012164 0.364938 0.051464 -0.300371 -0.601707 0.001822 0.151984 0.005140 0.055548 0.200376 -0.240549 -0.220262 -0.190749 0.218473 0.378449 0.077673 0.142474 -0.067325 -0.072941 -0.200819 -0.315667 -0.188137 0.541632 -0.038041
期权 0.073127 -0.044595 -0.107294 -0.118047 -0.024125 -0.133347 0.015148 -0.255705 0.212998 0.217873 0.207107 -0.500887 0.252168 -0.028992 -0.045629 -0.139684 -0.159766 0.111832 -0.302944 0.307089 0.147510 -0.175341 0.203590 -0.219102 0.040915 -0.088809 0.057466 0.162122 -0.465567 0.085316 0.382897 0.028095 0.060378 -0.049359 -0.008162 -0.125860 -0.221998 -0.437428 -0.384833 -0.268514 0.353498 0.279402 -0.019370 -0.006504 0.316714 0.235684 -0.063998 -0.232648 -0.018720 -0.139089 -0.195694 -0.014140 0.057953 -0.187445 0.045405 0.236609 0.040573 0.398399 0.243298 0.171416 -0.102442 0.132842 0.153653 0.117578 0.019854 -0.042946 -0.149606 0.300905 0.396120 0.139005 0.118838 0.099479 -0.271621 -0.000243 -0.288926 0.010634 -0.068923 0.147021 0.106622 -0.231372 -0.523220 0.010817 0.139046 0.200512 -0.009154 0.074463 -0.237613 -0.226667 0.027930 0.243652 0.204170 -0.114603 -0.021393 0.060399 -0.183497 -0.034854 -0.156161 -0.209135 0.459113 0.023432
方式 0.070209 -0.070600 -0.141390 -0.119164 -0.031709 -0.228236 0.035846 -0.393329 0.298231 0.327544 0.289096 -0.700109 0.376678 -0.060106 -0.025961 -0.221742 -0.236126 0.156133 -0.457182 0.500199 0.247075 -0.227884 0.255197 -0.293903 0.059823 -0.100770 0.108610 0.262583 -0.694427 0.088532 0.550828 -0.004120 0.048573 -0.051197 -0.010519 -0.190774 -0.330582 -0.695161 -0.542922 -0.390345 0.552148 0.411581 -0.035603 -0.059554 0.489107 0.352036 -0.108519 -0.363872 -0.033734 -0.166975 -0.251983 0.010862 0.103482 -0.286869 0.019761 0.300209 0.058606 0.527672 0.405156 0.253615 -0.162176 0.187221 0.209568 0.139186 0.018941 -0.089471 -0.227457 0.456667 0.632494 0.227097 0.204836 0.196904 -0.396148 0.038071 -0.441609 -0.038052 -0.101329 0.231048 0.182504 -0.326498 -0.797065 0.009978 0.195497 0.284593 -0.002714 0.157744 -0.377690 -0.311453 0.024646 0.367550 0.332740 -0.195351 -0.039818 0.043212 -0.235887 -0.058623 -0.258652 -0.290298 0.672737 0.007551
规则 -0.023906 0.037221 -0.191451 -0.215601 -0.078937 -0.210797 -0.078334 -0.391277 0.269084 0.213335 0.241546 -0.624700 0.283523 -0.024574 -0.128527 -0.175401 -0.098227 0.149299 -0.341975 0.414745 0.145568 -0.298515 0.253930 -0.235949 -0.024147 -0.093348 0.077345 0.253986 -0.549484 0.080553 0.476765 -0.034593 0.010468 -0.044559 -0.001657 -0.233162 -0.302213 -0.562417 -0.498471 -0.354365 0.471135 0.323903 0.041974 -0.064767 0.399855 0.259519 0.059515 -0.351505 -0.041620 -0.091407 -0.171847 0.011460 0.185530 -0.182652 0.062888 0.209647 0.010267 0.388598 0.393080 0.271899 -0.150724 0.169949 0.223815 0.153640 0.152845 -0.126684 -0.207031 0.393074 0.458610 0.212302 0.235382 0.098111 -0.327344 -0.090046 -0.372020 -0.119945 -0.113662 0.247191 0.154898 -0.246659 -0.694778 0.032890 0.107929 0.177914 -0.027925 0.203553 -0.260520 -0.283970 -0.086015 0.318417 0.285822 -0.029779 0.024650 -0.019402 -0.245610 -0.138529 -0.236951 -0.205630 0.550623 -0.010416
区别 -0.079554 -0.018144 -0.180911 -0.251808 -0.107111 -0.162859 0.095487 -0.276095 0.274072 0.128951 0.202184 -0.351211 0.330636 0.006883 -0.158307 -0.210140 -0.042553 0.242370 -0.265757 0.321336 0.266298 -0.306096 0.211120 -0.093674 -0.073411 -0.034501 0.107916 0.108101 -0.296617 0.056380 0.370839 -0.085788 -0.012247 -0.043560 -0.107330 -0.197131 -0.354631 -0.693332 -0.323590 -0.312298 0.336392 0.236272 0.046027 -0.257074 0.360313 0.199331 0.119680 -0.182898 -0.099946 0.094030 -0.042933 0.027636 0.132488 -0.132507 -0.046721 0.016725 0.181201 0.331474 0.381673 0.153457 -0.188372 0.182474 0.079988 -0.026303 0.080662 -0.041366 -0.045884 0.173092 0.385242 0.276359 0.230919 0.202411 -0.288518 -0.195734 -0.364328 -0.108565 -0.111448 0.242624 0.237575 -0.277591 -0.454481 -0.007653 -0.046444 0.039064 0.169209 0.067295 -0.317638 -0.092352 -0.216075 0.283155 0.262786 -0.127301 -0.101675 -0.051447 -0.076674 -0.060292 -0.056946 -0.042580 0.461929 -0.145873
市场 -0.040460 0.129128 -0.230696 -0.257989 -0.041850 -0.135091 -0.215496 -0.283327 0.176088 0.037821 0.173933 -0.512144 0.075680 0.041958 -0.126520 -0.073840 0.010660 0.151626 -0.151131 0.305444 -0.025009 -0.181322 0.177603 -0.195044 0.014723 -0.037637 -0.006766 0.205938 -0.463708 0.101864 0.280413 0.022460 -0.112524 -0.068180 0.019370 -0.187638 -0.135356 -0.238313 -0.318949 -0.186344 0.268704 0.157644 0.040608 0.051040 0.242697 0.221721 0.050320 -0.344489 0.036452 -0.114544 -0.119860 0.041175 0.234874 -0.041355 0.086325 0.229973 -0.166927 0.243643 0.298557 0.352101 -0.071235 0.056005 0.244841 0.299844 0.302374 -0.132141 -0.184415 0.428826 0.216551 0.140275 0.167628 0.009648 -0.221822 -0.113205 -0.117726 -0.083679 -0.074366 0.202374 -0.007715 -0.109263 -0.551706 -0.030063 0.190059 0.067412 -0.099688 0.215458 -0.038468 -0.344274 -0.063942 0.234284 0.206339 0.175506 0.174018 0.011269 -0.171976 -0.148390 -0.193989 -0.191316 0.435294 0.110501
中签 -0.031630 0.018517 -0.243162 -0.253309 0.034955 -0.209934 0.001724 -0.282208 0.367855 0.160528 0.173447 -0.452684 0.324534 0.029634 -0.177157 -0.224083 -0.042154 0.233827 -0.277186 0.337117 0.301953 -0.137506 0.246977 -0.173772 0.001106 -0.113479 0.087668 0.126340 -0.447300 -0.004918 0.380179 -0.033057 -0.051213 -0.027651 0.023428 -0.224706 -0.353255 -0.686235 -0.304277 -0.298711 0.332271 0.247710 0.037588 -0.186703 0.425103 0.350557 -0.037755 -0.297320 -0.026105 -0.027289 -0.068290 0.040706 0.201945 -0.204095 0.048866 0.118698 0.084542 0.320958 0.359239 0.210969 -0.199249 0.162775 0.062042 0.174129 0.026018 -0.089109 -0.099985 0.332417 0.409199 0.156619 0.197736 0.172328 -0.282122 -0.139197 -0.353694 -0.126544 -0.033521 0.314722 0.129330 -0.302282 -0.513538 -0.027174 0.086079 0.031659 0.141544 0.106394 -0.305986 -0.151705 -0.171553 0.247355 0.301074 -0.048279 -0.013340 -0.030297 -0.054511 -0.088851 -0.166375 -0.147426 0.533725 -0.094963
配号 -0.068503 0.069557 -0.247097 -0.224273 0.000947 -0.239089 -0.127992 -0.332001 0.255828 0.120790 0.163778 -0.479728 0.201461 0.013750 -0.118987 -0.186707 -0.004100 0.172491 -0.266991 0.363292 0.170312 -0.163786 0.195600 -0.171406 -0.001033 -0.099697 0.090385 0.207384 -0.469624 0.022769 0.328986 -0.076258 -0.104573 -0.038806 0.053905 -0.217200 -0.260371 -0.533803 -0.328737 -0.291773 0.375338 0.230677 0.006620 -0.094826 0.358967 0.279213 -0.006297 -0.380371 -0.024325 0.003443 -0.066339 0.044695 0.232311 -0.146912 0.037714 0.151200 -0.023248 0.221291 0.383875 0.273417 -0.153157 0.131859 0.187910 0.213609 0.180955 -0.139755 -0.162052 0.374526 0.405661 0.178242 0.214951 0.103060 -0.265494 -0.095102 -0.289347 -0.161209 -0.049559 0.290129 0.080961 -0.245361 -0.591934 -0.000313 0.131230 0.069308 0.005356 0.189999 -0.207446 -0.232456 -0.127737 0.243617 0.322764 0.035252 0.080756 -0.043296 -0.111477 -0.132950 -0.237623 -0.166407 0.467864 -0.006742
显示 -0.067691 0.044166 -0.247967 -0.287054 -0.050001 -0.176873 -0.039536 -0.324948 0.286898 0.129239 0.231276 -0.503265 0.265397 0.035726 -0.174690 -0.176769 -0.028837 0.222630 -0.245342 0.342263 0.166784 -0.282021 0.247010 -0.171849 -0.019490 -0.070933 0.057917 0.165670 -0.455542 0.090967 0.395452 -0.032196 -0.056584 -0.063231 -0.039361 -0.229974 -0.309473 -0.584429 -0.374262 -0.289270 0.372023 0.244581 0.052919 -0.132687 0.369564 0.248168 0.075642 -0.288790 -0.043948 -0.012425 -0.096747 0.034407 0.213830 -0.150083 0.038338 0.146669 0.038257 0.356959 0.392946 0.284599 -0.159609 0.161503 0.160905 0.145271 0.172063 -0.081174 -0.130258 0.343317 0.377211 0.238628 0.239908 0.133189 -0.296194 -0.183193 -0.322344 -0.113368 -0.105496 0.270125 0.146572 -0.240030 -0.568365 -0.019813 0.084142 0.071776 0.067117 0.168943 -0.244568 -0.237374 -0.157660 0.291588 0.288254 -0.010274 0.018466 -0.013528 -0.153939 -0.109664 -0.148282 -0.146167 0.530455 -0.032934
临时 -0.108805 0.078790 -0.205432 -0.186099 0.055305 -0.241680 -0.127429 -0.262772 0.331088 0.170994 0.084144 -0.363877 0.195019 0.001785 -0.160241 -0.203938 0.014426 0.145665 -0.225376 0.277943 0.223026 -0.097512 0.221913 -0.111182 -0.045014 -0.144127 0.094063 0.189770 -0.406244 -0.168424 0.295547 -0.075659 -0.098207 0.065955 0.115122 -0.245246 -0.336406 -0.563894 -0.219179 -0.230761 0.290964 0.133874 0.047103 -0.154126 0.351771 0.292979 -0.024239 -0.335814 0.048187 -0.004212 -0.010448 0.060153 0.288392 -0.186264 0.118340 0.057833 -0.013206 0.121517 0.325819 0.211837 -0.185401 0.121061 0.059567 0.258384 0.048312 -0.138369 -0.154682 0.354190 0.338440 0.015933 0.157588 0.097910 -0.192773 -0.101776 -0.327758 -0.247801 0.021861 0.314795 0.069853 -0.248015 -0.462179 0.039838 0.058873 -0.015092 0.064731 0.166099 -0.246624 -0.136142 -0.189689 0.163471 0.255979 0.062230 0.096180 -0.099735 -0.060964 -0.180784 -0.244417 -0.104486 0.381908 -0.097960
单位 -0.044053 0.071379 -0.192695 -0.179788 -0.054153 -0.161015 -0.154930 -0.301777 0.143669 0.087217 0.215013 -0.529812 0.088452 0.016324 -0.091731 -0.080310 -0.050774 0.103024 -0.205886 0.290056 -0.035892 -0.228224 0.188994 -0.214786 0.029797 -0.035801 0.006790 0.205137 -0.445153 0.136666 0.290213 -0.024049 -0.037897 -0.072549 -0.025575 -0.179933 -0.144164 -0.248012 -0.355092 -0.231605 0.360435 0.230425 0.015942 0.057317 0.268872 0.169349 0.038060 -0.302014 -0.025883 -0.081877 -0.147713 0.032440 0.161007 -0.093411 0.038054 0.225473 -0.060070 0.256812 0.279185 0.296297 -0.059794 0.087732 0.267394 0.191193 0.259727 -0.106913 -0.190393 0.359853 0.296307 0.183689 0.195853 0.007706 -0.231536 -0.051572 -0.199307 -0.082653 -0.114881 0.150897 0.036651 -0.132813 -0.549012 -0.004047 0.153370 0.153650 -0.110369 0.242191 -0.099569 -0.309744 -0.002456 0.232658 0.251919 0.063159 0.107054 0.011326 -0.199869 -0.092214 -0.202310 -0.217411 0.392179 0.080866
计算 0.004077 -0.072143 -0.075734 -0.072708 -0.087031 -0.128742 0.092278 -0.249044 0.103100 0.152063 0.189851 -0.377737 0.206859 -0.057869 -0.021009 -0.115701 -0.133769 0.073283 -0.279660 0.294694 0.132727 -0.237824 0.126311 -0.132790 0.020426 0.022172 0.084525 0.140441 -0.292528 0.119290 0.300558 -0.087735 0.080515 -0.064847 -0.095007 -0.104854 -0.163902 -0.422479 -0.336829 -0.262866 0.338474 0.277583 -0.020277 -0.101089 0.273576 0.115914 0.038602 -0.164482 -0.104022 0.025235 -0.137339 0.007143 -0.009903 -0.128956 -0.092855 0.098219 0.120696 0.305433 0.259668 0.127057 -0.081930 0.140951 0.160746 -0.072621 0.077205 -0.044681 -0.104313 0.154721 0.390028 0.261740 0.162308 0.148167 -0.238097 0.002562 -0.260727 -0.014209 -0.133609 0.088673 0.191358 -0.172414 -0.446427 -0.007106 0.060086 0.166310 -0.002708 0.115446 -0.229544 -0.142055 0.004539 0.250401 0.212157 -0.168577 -0.082822 -0.007769 -0.140406 0.015396 -0.080044 -0.130749 0.345962 -0.017152
转不出 0.052017 0.071352 -0.140222 -0.140738 -0.041034 -0.085129 -0.145004 -0.242311 0.140705 0.112913 0.128909 -0.456137 0.081911 -0.013345 -0.022042 -0.063941 -0.069398 0.083717 -0.164261 0.257448 -0.005968 -0.108135 0.109398 -0.181426 0.072153 -0.056077 -0.019838 0.166567 -0.456987 0.086992 0.272238 0.101099 -0.063279 -0.079110 0.070165 -0.107296 -0.052902 -0.198929 -0.298902 -0.159824 0.244650 0.151618 0.002340 0.082214 0.206498 0.187133 -0.047892 -0.260453 0.045619 -0.166085 -0.173924 -0.019327 0.119937 -0.093450 0.099822 0.236045 -0.182009 0.256851 0.210452 0.237453 -0.059605 0.028021 0.188517 0.246420 0.140798 -0.070880 -0.163932 0.384195 0.229760 0.053169 0.072600 0.014599 -0.183315 -0.029767 -0.100874 0.006708 -0.058742 0.132018 -0.007305 -0.093481 -0.493618 0.000851 0.206686 0.140948 -0.098055 0.125338 -0.063094 -0.310657 0.038126 0.196403 0.158570 0.070649 0.121707 0.027781 -0.170641 -0.099298 -0.189483 -0.212441 0.394202 0.108228
竞价 -0.038706 0.106283 -0.173736 -0.085901 0.152431 -0.272460 -0.252830 -0.227619 0.260609 0.186034 0.019897 -0.332039 0.132026 -0.014036 -0.049631 -0.204580 0.005422 0.062037 -0.209320 0.279456 0.182790 0.084058 0.142826 -0.123439 0.014578 -0.237880 0.101307 0.230110 -0.490849 -0.232791 0.229262 -0.022981 -0.155761 0.120997 0.272623 -0.181127 -0.222190 -0.442588 -0.161550 -0.172606 0.267858 0.083181 -0.002737 -0.036729 0.310543 0.350484 -0.175738 -0.429347 0.120035 -0.096587 -0.006028 0.063299 0.312268 -0.226399 0.178165 0.114071 -0.180636 0.000723 0.272053 0.198952 -0.186474 0.076296 0.085071 0.414352 -0.010926 -0.145249 -0.187974 0.446194 0.325340 -0.135221 0.073049 0.055296 -0.130628 -0.001531 -0.255394 -0.257496 0.089189 0.307788 -0.047365 -0.201520 -0.470502 0.060045 0.177288 -0.005305 -0.023472 0.145442 -0.172722 -0.193886 -0.102265 0.086407 0.264615 0.109907 0.202795 -0.054320 -0.053208 -0.221933 -0.372536 -0.174983 0.337371 0.006278
回购 0.019384 -0.029913 -0.115333 -0.056623 0.086383 -0.263680 -0.026027 -0.305765 0.294539 0.313349 0.169696 -0.486653 0.317238 -0.075152 -0.033542 -0.240993 -0.152714 0.082870 -0.388147 0.380457 0.288015 -0.074213 0.222353 -0.189633 0.050271 -0.166866 0.145272 0.225149 -0.575399 -0.106818 0.407053 -0.049140 0.002414 0.058220 0.119281 -0.182483 -0.310473 -0.693492 -0.335095 -0.319431 0.443174 0.267841 -0.038611 -0.117230 0.450436 0.358831 -0.165562 -0.358009 0.013930 -0.095669 -0.140194 0.034516 0.156775 -0.328383 0.076688 0.150496 0.030851 0.263719 0.330765 0.160491 -0.195867 0.163734 0.112875 0.188638 -0.076174 -0.095846 -0.186899 0.390404 0.543853 0.054373 0.156261 0.161075 -0.262918 0.046626 -0.416242 -0.157046 -0.007129 0.248311 0.123235 -0.302875 -0.586772 0.040854 0.154046 0.150420 0.052273 0.144507 -0.358493 -0.173770 -0.042813 0.225125 0.315765 -0.151302 0.004454 -0.034802 -0.126930 -0.111616 -0.312327 -0.228420 0.495194 -0.060499
上市公司 0.118534 -0.070506 -0.114661 -0.036507 0.086621 -0.232427 -0.035623 -0.280959 0.287573 0.334166 0.152031 -0.541957 0.315883 -0.059272 0.018650 -0.224947 -0.208883 0.117116 -0.389990 0.418956 0.287563 0.007110 0.196583 -0.255281 0.090793 -0.196259 0.112840 0.220829 -0.655614 -0.044662 0.431171 0.058360 -0.011528 0.020299 0.154240 -0.130009 -0.280562 -0.609389 -0.387490 -0.287970 0.424960 0.295907 -0.066251 -0.023681 0.421805 0.403781 -0.275641 -0.384769 0.066148 -0.213158 -0.180184 -0.005046 0.108384 -0.315398 0.104317 0.280956 -0.035152 0.367492 0.301392 0.178775 -0.176137 0.125030 0.104270 0.263662 -0.133714 -0.073769 -0.207569 0.469618 0.550952 0.021023 0.066532 0.188510 -0.294857 0.108511 -0.342963 -0.044403 0.020336 0.257056 0.059698 -0.304420 -0.652265 0.014535 0.243625 0.210274 0.017441 0.071760 -0.324984 -0.230765 0.023734 0.238942 0.279150 -0.149231 0.026039 0.058888 -0.139719 -0.082481 -0.306886 -0.295473 0.575063 0.042869
价格 0.083837 -0.031592 -0.114182 -0.116105 -0.016303 -0.182975 0.007541 -0.299597 0.293322 0.282293 0.187304 -0.551996 0.316752 -0.044176 -0.044929 -0.186894 -0.168293 0.142813 -0.355051 0.384139 0.236237 -0.134761 0.216725 -0.239018 0.037739 -0.143493 0.086064 0.208971 -0.546637 0.014193 0.443990 0.036119 0.048937 0.000128 0.060029 -0.170467 -0.276932 -0.584950 -0.426379 -0.308496 0.423176 0.308397 -0.006109 -0.050813 0.395739 0.322969 -0.110740 -0.311132 0.004233 -0.171056 -0.200411 -0.018340 0.105671 -0.248432 0.092396 0.228629 0.020669 0.409200 0.295060 0.166239 -0.155652 0.148291 0.110222 0.171299 -0.046216 -0.068917 -0.172161 0.391764 0.488726 0.089927 0.103459 0.141574 -0.300746 0.019989 -0.345470 -0.043185 -0.052192 0.220773 0.117187 -0.263822 -0.607970 0.036525 0.170381 0.189809 0.006347 0.068215 -0.304825 -0.223812 -0.007917 0.254993 0.233606 -0.112049 0.005389 0.026194 -0.188261 -0.076423 -0.236664 -0.234170 0.541275 0.001999
首次 0.239176 -0.028129 0.047057 0.148021 0.041117 -0.088293 -0.052861 -0.109572 0.208203 0.311021 -0.038250 -0.395318 0.103546 -0.092518 0.246737 -0.119767 -0.236471 0.024694 -0.270725 0.325035 0.158630 0.237354 -0.016334 -0.214278 0.191481 -0.190207 0.053820 0.171646 -0.548784 -0.145431 0.275581 0.223123 -0.026855 0.000028 0.309249 -0.056523 0.060423 -0.203364 -0.245209 -0.090025 0.267492 0.131665 -0.124606 0.169818 0.171641 0.324611 -0.399074 -0.269892 0.223087 -0.394443 -0.233792 -0.147327 0.006475 -0.273134 0.189325 0.289063 -0.308599 0.266087 0.022937 0.022915 -0.039652 -0.040265 0.036950 0.384355 -0.245590 -0.076720 -0.203547 0.484727 0.389262 -0.269737 -0.188927 0.081586 -0.118980 0.223419 -0.095535 0.121501 0.045885 0.132262 -0.100547 -0.081432 -0.506727 0.113689 0.405000 0.256293 -0.200330 -0.065194 -0.109116 -0.267769 0.214033 0.067024 0.060960 0.016206 0.188109 0.011494 -0.199617 -0.059400 -0.310244 -0.300653 0.391154 0.123298
销户 0.087944 -0.025188 -0.078070 -0.036278 0.146991 -0.181557 -0.029339 -0.141132 0.250482 0.213948 0.026031 -0.269429 0.260390 -0.050122 -0.014572 -0.175264 -0.078414 0.068056 -0.248708 0.252198 0.271433 0.131351 0.128693 -0.126385 0.042346 -0.203347 0.105237 0.113690 -0.409066 -0.128852 0.264009 0.067602 -0.035482 0.068186 0.178776 -0.082730 -0.231146 -0.497440 -0.149898 -0.162717 0.207171 0.154054 -0.018643 -0.090285 0.307592 0.323141 -0.257389 -0.273696 0.068838 -0.117109 -0.057937 0.023538 0.106647 -0.258879 0.098841 0.110325 -0.014284 0.174347 0.197342 0.079524 -0.148556 0.095979 -0.027847 0.205464 -0.207480 -0.061503 -0.116081 0.284739 0.371584 -0.069897 0.044154 0.144332 -0.155526 0.069851 -0.234792 -0.108673 0.092928 0.228536 0.013408 -0.235895 -0.341888 0.028227 0.147039 0.049284 0.095149 -0.001840 -0.253976 -0.077681 -0.032517 0.090587 0.174347 -0.080208 0.016282 0.034137 -0.007025 -0.073720 -0.216622 -0.175664 0.352703 -0.009754
卖 0.013065 0.022038 -0.137018 -0.153698 -0.068437 -0.161385 -0.075709 -0.342000 0.214238 0.207188 0.200835 -0.561106 0.241165 -0.060463 -0.080939 -0.150459 -0.111047 0.089293 -0.325126 0.369444 0.111694 -0.250632 0.182899 -0.197194 0.013397 -0.075419 0.063531 0.227501 -0.518686 0.059013 0.432038 0.006531 -0.005050 -0.053732 0.027899 -0.151072 -0.242024 -0.498226 -0.431551 -0.299301 0.394582 0.266668 0.024804 -0.037224 0.358200 0.204368 0.029221 -0.324106 -0.027248 -0.089830 -0.170898 0.004216 0.131073 -0.162970 0.060852 0.209402 -0.041825 0.368040 0.344177 0.242157 -0.122367 0.158439 0.206035 0.124193 0.096896 -0.109055 -0.193056 0.342270 0.399783 0.166778 0.187061 0.078145 -0.290751 -0.028328 -0.303722 -0.088772 -0.109981 0.201383 0.131053 -0.218387 -0.647309 0.040111 0.109885 0.185414 -0.020733 0.165857 -0.234161 -0.293534 -0.018436 0.281671 0.235386 -0.064859 0.015811 -0.003702 -0.226206 -0.108172 -0.203128 -0.207478 0.485705 0.020543
数量 0.004122 0.018307 -0.158323 -0.135594 0.058835 -0.200595 -0.077894 -0.256273 0.267008 0.202698 0.138795 -0.425646 0.246576 -0.016767 -0.075410 -0.178513 -0.069193 0.121748 -0.267686 0.316438 0.198184 -0.072260 0.190964 -0.168235 0.013482 -0.141725 0.085315 0.179396 -0.478499 -0.047356 0.343343 0.000843 -0.037624 0.024011 0.091013 -0.172219 -0.271918 -0.529173 -0.286490 -0.239890 0.320664 0.209796 0.007343 -0.075701 0.350775 0.307203 -0.107995 -0.314291 0.025001 -0.094732 -0.097667 0.030091 0.186548 -0.216356 0.091597 0.152817 -0.011443 0.250642 0.291697 0.192372 -0.161102 0.125662 0.097892 0.223395 0.001172 -0.083493 -0.158054 0.355262 0.393195 0.059935 0.132752 0.116537 -0.220845 -0.028070 -0.294976 -0.127386 0.002612 0.249594 0.073812 -0.231582 -0.511745 0.009642 0.142620 0.079266 0.039268 0.117254 -0.245924 -0.186552 -0.078281 0.190734 0.250383 -0.020982 0.046701 0.005211 -0.097628 -0.114976 -0.227837 -0.191069 0.449700 -0.013434
收费 0.042426 -0.005578 -0.089250 -0.174907 -0.016352 -0.058716 0.059116 -0.139129 0.226725 0.088699 0.118495 -0.279734 0.248269 -0.003362 -0.105269 -0.094652 -0.054622 0.140045 -0.189120 0.191084 0.164770 -0.096558 0.160892 -0.123121 -0.036276 -0.067651 0.033282 0.064444 -0.227977 0.018527 0.267640 0.070298 0.009168 -0.018459 0.002419 -0.110283 -0.203996 -0.372768 -0.228843 -0.157821 0.156523 0.171648 0.037752 -0.083762 0.216457 0.162261 -0.009887 -0.122967 -0.016036 -0.058502 -0.067364 0.002934 0.056785 -0.092714 0.046481 0.112568 0.066877 0.283218 0.185356 0.104284 -0.090821 0.124830 0.002102 0.040764 -0.053372 -0.015687 -0.044828 0.133755 0.220004 0.098541 0.094132 0.107624 -0.162211 -0.063051 -0.175619 -0.023250 -0.025265 0.149548 0.083857 -0.181524 -0.287825 -0.004281 0.011311 0.033358 0.095729 -0.014706 -0.203481 -0.085831 -0.083113 0.136018 0.090247 -0.061050 -0.037157 0.043733 -0.055548 -0.021342 -0.019679 -0.071839 0.324210 -0.028151
标的 0.047743 -0.013820 -0.119395 -0.115371 -0.091132 -0.154661 -0.004590 -0.296911 0.217794 0.197865 0.166751 -0.506913 0.248889 -0.040200 -0.030212 -0.172851 -0.142671 0.146567 -0.325216 0.378518 0.178819 -0.200112 0.137148 -0.185863 0.049698 -0.073594 0.063019 0.186300 -0.471531 0.063689 0.383640 0.009626 -0.012933 -0.077618 0.024378 -0.141551 -0.188567 -0.502918 -0.424190 -0.299619 0.391808 0.278071 -0.025543 -0.045814 0.330520 0.221076 -0.020743 -0.284880 -0.015408 -0.096014 -0.181121 -0.029559 0.090600 -0.167281 0.028196 0.196627 -0.029604 0.356240 0.314098 0.179115 -0.123093 0.120152 0.167799 0.098717 0.045215 -0.076979 -0.141211 0.342764 0.440467 0.163339 0.116698 0.127108 -0.272665 -0.003436 -0.272441 -0.031790 -0.103571 0.187840 0.123813 -0.215171 -0.604741 0.027163 0.134877 0.178268 -0.022519 0.080815 -0.253469 -0.235622 -0.001480 0.274301 0.232487 -0.102854 0.016772 -0.016255 -0.193922 -0.057804 -0.197032 -0.193493 0.476651 -0.003649
融资 0.028526 -0.070985 -0.081672 -0.072291 -0.121672 -0.114901 0.041308 -0.330081 0.096171 0.217105 0.321363 -0.607746 0.199110 -0.056328 -0.015695 -0.086254 -0.229528 0.060836 -0.324805 0.331504 0.011332 -0.348167 0.185505 -0.235792 0.067922 0.023096 0.028329 0.193566 -0.492254 0.223185 0.411114 -0.030688 0.111516 -0.119347 -0.139419 -0.135167 -0.149880 -0.332665 -0.493270 -0.301014 0.480680 0.353095 -0.032906 0.043662 0.296515 0.131427 0.039741 -0.186804 -0.076342 -0.122427 -0.279573 -0.027172 0.000638 -0.170176 -0.036613 0.286086 0.071831 0.462092 0.275573 0.227637 -0.036430 0.122705 0.300586 0.004263 0.169085 -0.031803 -0.180473 0.297785 0.423528 0.290390 0.181296 0.061932 -0.313295 0.040419 -0.294777 0.059277 -0.188494 0.037401 0.171380 -0.163165 -0.618449 0.003218 0.153028 0.326593 -0.108788 0.194991 -0.211997 -0.293612 0.113087 0.327338 0.229862 -0.157363 -0.043051 0.042031 -0.283069 0.006511 -0.159973 -0.235813 0.453316 0.062042
网下 0.098584 -0.101825 -0.028512 0.032317 0.020983 -0.148039 0.069628 -0.185544 0.182314 0.276758 0.104456 -0.346723 0.255744 -0.085726 0.035192 -0.152450 -0.181764 0.057814 -0.309746 0.285754 0.228806 -0.025957 0.115510 -0.160551 0.074867 -0.128286 0.101004 0.130735 -0.386317 -0.022030 0.307606 0.016817 0.074024 0.001333 0.067779 -0.076285 -0.178260 -0.468433 -0.278604 -0.239490 0.321985 0.229491 -0.058536 -0.061115 0.302175 0.242880 -0.174705 -0.206118 -0.004322 -0.130731 -0.149002 -0.036308 0.006882 -0.250223 0.036303 0.157476 0.056393 0.283254 0.176497 0.040038 -0.109532 0.104394 0.047092 0.082874 -0.152840 -0.028677 -0.105445 0.265910 0.427031 0.044301 0.035391 0.144132 -0.208004 0.095677 -0.272977 -0.004220 -0.005446 0.142884 0.095725 -0.207697 -0.426102 0.033904 0.153686 0.183555 0.027654 0.005676 -0.278904 -0.103028 0.039646 0.166546 0.176054 -0.183148 -0.049346 0.012446 -0.108015 -0.012403 -0.192622 -0.183106 0.373268 -0.016426
